0.03592005372047424	-0.013114875182509422	0.022589484229683876	0.04711531102657318	-0.0764157697558403	0.016956297680735588	0.01800375059247017	-0.01859397627413273	0.01222145650535822	0.07100547105073929	0.08521620184183121	0.0035353712737560272	0.05458318069577217	0.03588864579796791	-0.012620496563613415	-0.014085245318710804	-0.046698685735464096	-0.051307085901498795	0.02483418583869934	0.034025151282548904	0.0776764303445816	0.061800770461559296	0.003465837799012661	0.006042524240911007	-0.023145515471696854	0.04187385365366936	0.0030928300693631172	-0.026091156527400017	0.06949719786643982	0.0624840185046196	0.07541925460100174	0.020556313917040825	-0.027691051363945007	-0.07595379650592804	0.020328015089035034	0.03352540731430054	0.04989203065633774	0.008485130034387112	0.0683569461107254	-0.008118456229567528	-0.020533135160803795	-0.060837045311927795	-0.04853728786110878	-0.01014548446983099	-0.060909442603588104	-0.010228559374809265	-0.028219209983944893	-0.0011044127168133855	0.07448446750640869	0.004529878962785006	0.061198484152555466	-0.07990123331546783	0.10643293708562851	0.0959235429763794	0.024828091263771057	-0.01972460001707077	0.005194653291255236	-0.0029892921447753906	-0.0012319808593019843	-0.0022262900602072477	0.012620107270777225	0.04871528968214989	-0.032295599579811096	-0.002456552814692259	0.023733163252472878	0.03382040932774544	-0.017978684976696968	-0.04060289263725281	0.010082641616463661	0.020435847342014313	-0.0021388574969023466	0.036729056388139725	-0.023724524304270744	-0.0983978658914566	0.0038977644871920347	0.01973007060587406	-0.01681973598897457	0.015518585219979286	0.004414754454046488	0.03052295744419098	-0.06230984255671501	0.0344785712659359	-0.041212599724531174	-0.07225596904754639	-0.04979124292731285	0.011219262145459652	-0.05831269174814224	0.04897036403417587	0.025631137192249298	0.010693984106183052	-0.009205139242112637	-0.06050168350338936	0.00498712994158268	0.023789221420884132	0.05855849012732506	0.023395530879497528	-0.0008746635285206139	-0.017290610820055008	0.05668497830629349	0.011676638387143612	0.021090475842356682	0.02701418474316597	-0.018185017630457878	-0.052834827452898026	-0.03156773000955582	0.021755598485469818	0.04068036749958992	-0.04595210403203964	-0.0024336681235581636	-0.027582557871937752	-0.07800765335559845	0.048964615911245346	-0.046930212527513504	0.02260013297200203	-0.05583740770816803	0.010616958141326904	-0.08029978722333908	0.008675194345414639	-0.014929428696632385	-0.040201906114816666	-0.05537267029285431	0.0591982901096344	-0.08028391748666763	0.0265525970607996	-0.007425251416862011	0.010663590393960476	-0.02193894051015377	0.013083790428936481	-0.053527574986219406	-0.07931923121213913	0.02802073396742344	0.019726207479834557	0.12172295153141022	0.1111399307847023	0.025410130620002747	0.015948595479130745	0.0860212966799736	0.032452717423439026	0.017824122682213783	-0.05850150063633919	-0.04155030474066734	-0.045402392745018005	0.05390059947967529	-0.034732308238744736	0.0099260862916708	0.0347663015127182	0.005631558131426573	0.04284869134426117	0.009261752478778362	-0.006340457126498222	-0.030655084177851677	-0.036923062056303024	-0.08176620304584503	0.025196531787514687	0.0284634567797184	-0.006613628938794136	0.06150716915726662	-0.015397363342344761	0.04368845373392105	-0.033830445259809494	0.007155715953558683	-0.06296256929636002	0.05781236290931702	-0.02400924451649189	-0.03403225913643837	-0.005320410244166851	-0.00449124863371253	-0.005848044995218515	-0.07349025458097458	-0.0053437999449670315	-0.08314859122037888	-0.044641558080911636	-0.03333820402622223	9.181592758977786e-06	0.014311006292700768	0.06615635752677917	0.08330676704645157	-0.002562069334089756	0.02572033181786537	-0.09357913583517075	0.0326538160443306	0.05292525142431259	-0.013371152803301811	0.03254299238324165	0.014962887391448021	0.08495587855577469	-0.049648381769657135	-0.011168792843818665	0.02435385063290596	0.043119385838508606	-0.03178858011960983	-0.0033206602092832327	0.0278004240244627	0.007770630996674299	-0.005587172228842974	-0.09318401664495468	0.0070330132730305195	0.008413081988692284	-0.05115519091486931	0.00011736764281522483	0.010228283703327179	-0.02813761495053768	-0.004093452822417021	-0.027347827330231667	0.010599239729344845	0.010644995607435703	-0.010955994948744774	0.03056381084024906	0.038601409643888474	0.022281643003225327	-0.030344637110829353	0.10343106836080551	-0.025222474709153175	-0.02564455382525921	0.05272497981786728	0.04202219843864441	-0.06758109480142593	0.03508586436510086	0.019095731899142265	0.033339690417051315	0.022070175036787987	-0.005195861216634512	0.009158429689705372	-0.00878162495791912	-0.044702380895614624	-0.05313317850232124	-0.0440213643014431	0.0038614992517977953	-0.018269618973135948	0.05573968589305878	-0.08018167316913605	-0.1209011897444725	-0.031156988814473152	0.1428864598274231	-0.04817045107483864	-0.018521538004279137	-0.0017836616607382894	-0.04126016050577164	-0.09799839556217194	-0.02771807461977005	0.05414557084441185	0.035091791301965714	0.0025661983527243137	0.015608835965394974	0.02959434874355793	-0.058968715369701385	0.03782528266310692	-0.015170854516327381	-0.005322528071701527	-0.016245178878307343	0.03223633021116257	0.045664820820093155	-0.008638747036457062	0.01762373000383377	0.0583624430000782	-0.04484652355313301	-0.03530163690447807	0.051254019141197205	-0.03328925743699074	0.05461364984512329	-0.04952642694115639	0.005743739195168018	0.0068036331795156	-0.03462289646267891	0.030113238841295242	-0.025577852502465248	0.03509964421391487	-0.0183066725730896	0.04117296263575554	0.008688596077263355	0.01787918247282505	-0.046183981001377106	-0.011607184074819088	-0.04359729215502739	-0.0434366911649704	-0.0341670922935009	0.009144922718405724	0.022842999547719955	-0.01683771051466465	0.007956219837069511	0.006004256196320057	-0.02741209976375103	-0.007488077972084284	0.04914431646466255	0.005342545453459024	0.06466756761074066	0.01193879172205925	0.0033427055459469557	-0.05697191134095192	-0.012905234470963478	0.023869911208748817	-0.08038756996393204	-0.02447579614818096	0.018581518903374672	0.010481290519237518	-0.017402460798621178	0.010370601899921894	0.014630772173404694	-0.01913490705192089	0.016398830339312553	-0.013905607163906097	0.034031279385089874	0.009977169334888458	0.0897299125790596	0.09586740285158157	-0.015594156458973885	0.005070644896477461	-0.02374269627034664	0.010437432676553726	0.004422258585691452	-0.0019815638661384583	-0.058539748191833496	-0.032627999782562256	-0.022696686908602715	-0.02402358129620552	-0.048420704901218414	0.03993803635239601	-0.011506092734634876	-0.04546060785651207	-0.031132178381085396	0.06984761357307434	-0.01940533146262169	-0.018016435205936432	-0.05468084663152695	-0.020522616803646088	0.007894324138760567	-0.08454638719558716	0.04860595613718033	0.018342958763241768	-0.049078624695539474	-0.03525388985872269	-0.0311836376786232	0.060324013233184814	0.0036769441794604063	-0.06757397949695587	-0.023970946669578552	0.034237898886203766	0.03148290142416954	-0.015467418357729912	0.029524393379688263	-0.07751810550689697	-0.04073788598179817	-0.0015518049476668239	-0.04082033410668373	-0.06448150426149368	0.06660871207714081	0.01012121606618166	0.029328059405088425	0.0038805403746664524	0.007806587498635054	-0.014775619842112064	0.03377727419137955	-0.0313015915453434	0.03239430487155914	0.025312943384051323	0.0262873787432909	-0.10391610115766525	0.006190688814967871	0.032221194356679916	0.017905423417687416	-0.0029738659504801035	0.046884384006261826	0.12551496922969818	0.06152918189764023	-0.045790936797857285	0.01809958554804325	0.127081036567688	0.0018443266162648797	0.08347892016172409	-0.003068799152970314	0.0038328105583786964	-0.031158575788140297	-0.003856377676129341	-0.008619655855000019	-0.031119540333747864	-0.07140980660915375	0.054855842143297195	-0.02233303338289261	-0.008315157145261765	-0.09738947451114655	0.004524258431047201	-0.004800800234079361	0.07017671316862106	-0.10941962897777557	-0.015855910256505013	-0.03039909340441227	0.05241447687149048	-0.07109382003545761	0.034720271825790405	-0.01618906483054161	-0.00783601775765419	0.03626462444663048	0.03706273064017296	-0.0395716167986393	-0.06463879346847534	0.07506858557462692	-0.04803020507097244	0.040633201599121094	0.031069643795490265	-0.031756166368722916	0.03405386209487915	0.06670814752578735	0.006521513685584068	-0.042008839547634125	-0.00845044944435358	0.022810598835349083	-0.0631653219461441	0.07986640185117722	-0.018215356394648552	-0.06288693845272064	-0.06792797893285751	-0.028913700953125954	0.032827429473400116	-0.016591371968388557	-0.06291086226701736	0.02365315891802311	-0.034576401114463806	-0.011932493187487125	0.07330629229545593	-0.02561197616159916	0.06083318963646889	0.057737141847610474	-0.020028920844197273	0.015869533643126488	0.03737182170152664	0.03275223448872566	0.009448608383536339	0.03548584505915642	0.02642706222832203	0.09204459190368652	-0.03412286192178726	0.053846873342990875	-0.006287666037678719	-0.06584160774946213	0.04973280429840088	-0.02916654199361801	-0.0039308033883571625	0.030309682711958885	-0.021270398050546646	0.12156934291124344	-0.0014257888542488217	-0.029012469574809074	0.022097192704677582	-0.0038895090110599995	-0.009561734274029732	-0.006193435750901699	0.004925688728690147	-0.002421464305371046	-0.022920997813344002	0.0450306311249733	0.024474414065480232	0.06472357362508774	0.01862155832350254	-0.02160049043595791	0.040714189410209656	0.029871957376599312	-0.008970587514340878	-0.07266424596309662	-0.04925137385725975	0.05327781289815903	0.018945081159472466	0.02099577710032463	-0.014774336479604244	0.08156955987215042	0.06515335291624069	-0.047979481518268585	-0.03180007264018059	0.017728671431541443	0.012033059261739254	0.08330059051513672	0.026974724605679512	0.011981576681137085	0.0836949348449707	0.06344948709011078	0.022739898413419724	0.022228503599762917	-0.0105317747220397	0.024605924263596535	-0.005288748536258936	0.06136712804436684	-0.07228221744298935	-0.06896834820508957	0.04091076925396919	0.09771953523159027	0.024623164907097816	0.04054757580161095	-0.07544990628957748	-0.015928344801068306	-0.005235600285232067	0.05451283976435661	-0.019910156726837158	-0.031659696251153946	-0.049440648406744	-0.04992484673857689	0.004669582936912775	0.03913358226418495	0.0383312851190567	-0.004876520484685898	-0.03739405795931816	-0.0562751404941082	-0.01080129761248827	0.021126437932252884	0.017903314903378487	-0.14122270047664642	0.04792626574635506	0.04252958670258522	-0.07363208383321762	0.013136807829141617	-0.0012925060000270605	-0.03681788966059685	0.05438234657049179	-0.01693524233996868
1.2358198546280619e-05	-0.020609067752957344	-0.026982087641954422	0.08140642940998077	-0.06306298822164536	0.03921402990818024	-0.009015840478241444	-0.007817119359970093	0.019982608035206795	0.024667341262102127	-0.028567945584654808	0.04287475720047951	-0.03157014027237892	-0.013897540979087353	0.021388623863458633	-0.030741851776838303	-0.11465314775705338	0.025029951706528664	-0.019474457949399948	-0.01992800459265709	0.018062155693769455	-0.017332827672362328	0.03391319885849953	-0.08958638459444046	-0.01505341101437807	-0.056873008608818054	0.01938829943537712	0.03740682080388069	0.03046451322734356	0.009154997766017914	0.068027064204216	-0.008070319890975952	-0.07357760518789291	0.012974751181900501	0.09462831169366837	0.021115947514772415	0.005962958559393883	-0.08090254664421082	-0.011098513379693031	0.0026246639899909496	0.09836731106042862	-0.0783766359090805	-0.016098013147711754	-0.010752265341579914	0.03801959007978439	-0.08050096035003662	-0.013703730888664722	0.04145263880491257	0.01328006200492382	-0.011674090288579464	0.0010153346229344606	-0.015555701218545437	0.09880323708057404	0.07568799704313278	-0.04405605047941208	0.04187316074967384	0.023322109133005142	0.054632220417261124	0.054931171238422394	0.003101025940850377	0.028685854747891426	-0.00868853647261858	-0.07511522620916367	0.022449158132076263	-0.05250838026404381	0.08557039499282837	-0.0236219335347414	-0.059264909476041794	0.04714460298418999	0.03838987648487091	-0.00992796290665865	0.017039543017745018	-0.04671899974346161	-0.032297972589731216	-0.05567491054534912	0.053708478808403015	-0.006143167614936829	0.053245510905981064	-0.08078599721193314	-0.04638393595814705	-0.009981000795960426	-0.03917193412780762	-0.041403140872716904	-0.025198761373758316	-0.057913266122341156	-0.032207049429416656	0.03425225242972374	-0.054327432066202164	0.00699240155518055	-0.04400403052568436	-0.07857329398393631	0.05184345319867134	0.023937547579407692	-0.027423720806837082	0.000791022612247616	-0.036100123077631	0.009406412951648235	-0.07355736196041107	0.016854023560881615	0.058129340410232544	0.08300174027681351	0.024603979662060738	-0.021707627922296524	-0.009436320513486862	0.0018846438033506274	0.009240401908755302	-0.027486547827720642	-0.04794080927968025	-0.026984959840774536	-0.021472549065947533	0.00120106665417552	-0.003870187560096383	0.004102411214262247	-0.01583443023264408	-0.004165003076195717	0.04734193906188011	0.0013374760746955872	0.02836468629539013	0.008952527306973934	0.008010867983102798	-0.060276903212070465	0.017151080071926117	-0.03462104871869087	0.008856464177370071	-0.007058563642203808	0.058070216327905655	0.004782730247825384	0.0019824730698019266	0.0021849474869668484	-0.01636281982064247	0.053729720413684845	-0.07028231024742126	0.12769176065921783	0.10278422385454178	-0.004342545289546251	0.029906772077083588	0.0510336197912693	0.08974657952785492	-0.020069431513547897	-0.007604188285768032	0.044384658336639404	0.019211122766137123	0.013834243640303612	-0.0931491032242775	-0.05521589517593384	-0.056358207017183304	-0.03771257400512695	-0.00016139262879732996	0.04615899920463562	-0.011058291420340538	0.03907337039709091	0.043365560472011566	-0.012629781849682331	-0.021286003291606903	0.01678190752863884	0.01733563281595707	0.01520555093884468	0.06037214770913124	0.0229977834969759	0.029390862211585045	-0.01789955236017704	0.06806080788373947	-0.004888569470494986	-0.0043847099877893925	-0.0692208930850029	0.01786002889275551	-0.04722053185105324	-0.009920893236994743	-0.0046583241783082485	0.030879691243171692	-0.0471525676548481	0.07448113709688187	0.06644287705421448	0.038275204598903656	0.022624118253588676	-0.013947541825473309	0.053529832512140274	0.033552587032318115	-0.07216592878103256	-0.01994960382580757	0.005013035610318184	-0.0004330009687691927	0.0878354012966156	-0.01271361019462347	-0.0017059140373021364	0.012159786187112331	0.028914157301187515	-0.0329243540763855	0.03467003256082535	0.08926928043365479	0.0019925571978092194	0.10179076343774796	0.04597268998622894	0.03445795550942421	-0.016684619709849358	-0.0886036604642868	-0.021791143342852592	0.010826758109033108	-0.0062298886477947235	0.007132070139050484	0.010353128425776958	0.035052768886089325	-0.0006541286711581051	-0.0505170077085495	0.004903395660221577	0.0848039910197258	0.08264093846082687	0.05846009403467178	0.006380218546837568	0.05177919194102287	-0.04515939950942993	-0.010564674623310566	-0.023241441696882248	0.0006084984051994979	-0.0050243474543094635	-0.042591698467731476	0.042968206107616425	0.026992246508598328	0.026858149096369743	-0.03323071449995041	-0.04154932126402855	-0.004363344982266426	-0.04483089968562126	0.08237963169813156	-0.00531396921724081	0.038463931530714035	-0.03676687553524971	0.03519360348582268	-0.010840974748134613	0.018579911440610886	0.0362248569726944	-0.06803777068853378	-0.01293470524251461	0.13757091760635376	0.040970198810100555	-0.0443318635225296	-0.06494329869747162	-0.00691646384075284	-0.02342555671930313	0.026378627866506577	0.01792251318693161	-0.040009114891290665	-0.0339772030711174	0.023772364482283592	0.03575977310538292	0.007921664044260979	-0.034996166825294495	-0.006844985298812389	-0.019495267421007156	-0.030870454385876656	0.02302516996860504	-0.05511874705553055	0.019507119432091713	0.006225309334695339	-0.04492801055312157	0.01259054709225893	0.026428595185279846	0.020096641033887863	0.023828022181987762	-0.06588085740804672	-0.0577760711312294	-0.0780547559261322	0.011302968487143517	-0.03530915454030037	-0.06254561990499496	0.01216223556548357	-0.021260526031255722	-0.08427757769823074	-0.004026280250400305	-0.0032782985363155603	0.024955064058303833	-0.0818115770816803	-0.0019076088210567832	-0.02307114563882351	0.017142536118626595	0.05580608919262886	0.014533640816807747	0.03993856906890869	-0.001961201662197709	0.011021757498383522	0.009542746469378471	-0.07461972534656525	-0.06891435384750366	0.03439745679497719	0.01829887554049492	0.08975110948085785	-0.004429223947227001	-0.021071474999189377	-0.04102427512407303	-0.04182976484298706	-0.044058460742235184	0.017457952722907066	-0.04347359761595726	0.007982457987964153	0.029571352526545525	-0.022603487595915794	0.02527680993080139	0.04126724600791931	-0.041154179722070694	-0.07374260574579239	0.08452299237251282	0.044816941022872925	0.007842489518225193	0.049562614411115646	-0.0017212163656949997	0.051687538623809814	-0.008615638129413128	0.02649620734155178	-0.003137060906738043	0.027052411809563637	-0.00022888995590619743	0.026846030727028847	0.04243306815624237	0.014141012914478779	-0.04039064794778824	0.016230599954724312	-0.08043283224105835	0.0523805245757103	-0.01874055713415146	-0.04006170108914375	-0.013093390502035618	0.03172282129526138	0.03610256314277649	-0.030831387266516685	0.014978088438510895	-0.01183796115219593	-0.00762872863560915	-0.0004237083194311708	-0.03432581201195717	0.013028017245233059	-0.04969199746847153	-0.041109729558229446	0.07565221935510635	0.043228376656770706	-0.07827554643154144	-0.050038646906614304	0.0061659784987568855	-0.03006664477288723	0.05539833381772041	0.039454083889722824	0.014693919569253922	-0.05996963009238243	-0.041279420256614685	-0.038549698889255524	-0.008088515140116215	-0.029846299439668655	0.02554776892066002	-0.028837954625487328	0.016520269215106964	-0.010522217489778996	0.004187102895230055	-0.008013389073312283	-0.043989453464746475	0.055747564882040024	0.027754832059144974	-0.03745359927415848	-0.08913739025592804	0.06180905923247337	0.0034965663217008114	-0.006001248024404049	-0.05108945816755295	-0.029188143089413643	0.08529944717884064	-0.062024373561143875	0.00897796917706728	0.06786959618330002	0.08746827393770218	-0.0667702928185463	-0.029851024970412254	-0.049574077129364014	0.03126881271600723	-0.018821630626916885	-0.022389236837625504	0.05265983194112778	-0.05352359265089035	-0.007535895798355341	0.018367672339081764	-0.004952806513756514	-0.03583645448088646	-0.081442691385746	-0.022576214745640755	-0.015116667374968529	-0.024302072823047638	-0.040576182305812836	-0.039191268384456635	0.0018991953693330288	0.02236909046769142	0.02152114547789097	-0.0331747904419899	-0.06272070854902267	0.013366828672587872	-0.0025695464573800564	-0.02383953519165516	-0.0018632161663845181	0.031092891469597816	-0.012992318719625473	-0.0480290949344635	0.012149934656918049	-0.05105564743280411	0.03374091535806656	0.024208899587392807	-0.00293026864528656	-0.04882548376917839	-0.0367688350379467	0.034918926656246185	-0.026955345645546913	0.017604472115635872	0.04514308646321297	0.036247044801712036	-0.006468552630394697	-0.05402374267578125	0.06575208902359009	-0.013992371037602425	-0.062182534486055374	0.0013589311856776476	0.05804279446601868	0.005385314114391804	-0.07419725507497787	0.0012118063168600202	-0.05873904749751091	0.016788851469755173	0.013027848675847054	-0.05215787887573242	-0.023199746385216713	0.02533315308392048	0.03145776316523552	0.0040859319269657135	-0.057325247675180435	-0.08510332554578781	-0.03512761369347572	0.018020091578364372	0.06638402491807938	-0.008551493287086487	-0.04460287094116211	0.048213474452495575	-0.050228383392095566	-0.011972812935709953	-0.037391673773527145	-0.01958317495882511	0.03190112113952637	0.012867388315498829	0.019642146304249763	0.017529837787151337	-0.042291875928640366	-0.035434186458587646	-0.011058377102017403	0.014403518289327621	0.012631078250706196	-0.034202080219984055	0.11425730586051941	0.010141913779079914	0.032167091965675354	-0.06557080894708633	0.0249888114631176	0.03593708202242851	0.04105604439973831	0.038856714963912964	0.014334767125546932	-0.0772363543510437	0.052584558725357056	-0.12047041952610016	0.060899704694747925	0.0016596540808677673	0.019709525629878044	0.027362080290913582	-0.017924504354596138	0.05280543863773346	-0.06778792291879654	-0.09663974493741989	0.058389950543642044	-0.0317266508936882	0.04768739268183708	-0.08121553808450699	0.0589144267141819	-0.010623042471706867	-0.06871414184570312	-0.02273544855415821	0.06719126552343369	0.05578575283288956	0.1160343736410141	0.0789373591542244	-0.11711480468511581	0.030669284984469414	0.05238936468958855	0.09582092612981796	-0.0006336592487059534	-0.10107259452342987	0.033412106335163116	-0.03645620122551918	0.046963803470134735	0.02308420091867447	-0.011872577480971813	-0.015402453020215034	-0.023508554324507713	-0.059326671063899994	-0.011438180692493916	0.013534522615373135	-0.05806034430861473	-0.01828339882194996	-0.05352712422609329	-0.016915224492549896	-0.04954862594604492	0.029896697029471397	-0.13614796102046967	0.061908360570669174	-0.012209680862724781	-0.025479057803750038	-0.022014038637280464	-0.0006046968628652394	-0.022154973819851875	0.016083570197224617	-0.01322329230606556
0.032039765268564224	0.0021360230166465044	0.06606278568506241	0.030955197289586067	-0.08346997201442719	-0.018044207245111465	-0.012039880268275738	-0.08063546568155289	-0.000742706994060427	0.03547041863203049	-0.01089826412498951	0.0708678811788559	0.02495446987450123	0.0413828007876873	-0.07141704112291336	0.01284772902727127	-0.04055787995457649	-0.05679164081811905	-0.0034953865688294172	0.024552956223487854	-0.03069920651614666	0.08328220248222351	0.008030153810977936	-0.0801365002989769	-0.03356260806322098	0.00786388199776411	-0.0215201023966074	0.02318010851740837	0.046881578862667084	0.057417433708906174	0.014996620826423168	-0.07755754888057709	-0.054740361869335175	0.010479374788701534	-0.016399795189499855	-0.004705341532826424	0.03916626796126366	0.036610864102840424	0.045328352600336075	0.02867819182574749	-0.011410276405513287	0.007018105126917362	-0.04727548733353615	0.02364438772201538	-0.016481293365359306	-0.03324170038104057	-0.06310496479272842	0.013909604400396347	-0.03021078184247017	-0.02055097185075283	0.0018769872840493917	-0.028430847451090813	0.1346355527639389	0.10448341816663742	-0.0351618267595768	0.03468023240566254	0.04835793375968933	0.03213713318109512	0.02269033156335354	0.02001979947090149	-0.07524476945400238	-0.029987256973981857	0.00830365251749754	-0.009043771773576736	0.058690205216407776	0.06411787867546082	-0.061482712626457214	-0.04150247201323509	0.023516135290265083	0.053268350660800934	-0.04882505163550377	-0.00231603579595685	-0.012957592494785786	-0.01962726190686226	-0.04618711769580841	0.059382691979408264	-0.0124972490593791	-0.01762293465435505	-0.017077913507819176	0.01010184083133936	-0.04376590996980667	0.0031978634651750326	0.016764331609010696	0.030064016580581665	-0.0657152608036995	-0.019398193806409836	0.032493218779563904	0.008381516672670841	-0.0016145029803737998	-0.06635116785764694	-0.003729481715708971	0.006422762759029865	0.011676226742565632	-0.017185108736157417	0.02951691299676895	-0.020981352776288986	-0.04033510759472847	-0.02980482578277588	-0.004680146928876638	0.00885843113064766	0.036186426877975464	0.06210219860076904	0.0066153667867183685	-0.038668710738420486	0.05064682289958	-0.034987956285476685	0.012253915891051292	-0.057464078068733215	-0.0909750685095787	-0.023706655949354172	0.04701274633407593	-0.03196226432919502	-0.024246269837021828	-0.051342882215976715	-0.038463905453681946	0.004092259798198938	-0.028517261147499084	-0.014921236783266068	-0.025127306580543518	0.012071114033460617	-0.08357465267181396	-0.028896549716591835	-0.05729351192712784	-0.02305113896727562	-0.0198819562792778	0.03671158477663994	-0.010908889584243298	0.04560143128037453	0.03126874193549156	0.0024368073791265488	0.06043396145105362	-0.005774271674454212	0.15780046582221985	0.1319824755191803	0.007516573183238506	0.03634810447692871	0.036070872098207474	-0.024759594351053238	-0.028075803071260452	0.02259390614926815	-0.061983413994312286	-0.07118760049343109	0.024080980569124222	-0.09616196900606155	-0.010401549749076366	0.023957978934049606	0.035174403339624405	-0.017673363909125328	0.004524063318967819	-0.040333978831768036	-0.024898329749703407	0.04325432330369949	-0.058576446026563644	-0.009118951857089996	-0.02045932598412037	0.04073992744088173	-0.02922196313738823	-0.050616875290870667	0.03181935474276543	0.03816104307770729	0.020972341299057007	-0.05451617017388344	0.01530375424772501	-0.012765738181769848	-0.04334789514541626	0.007726083509624004	0.016314104199409485	-0.032764267176389694	-0.0014718153979629278	-0.013180543668568134	-0.06383979320526123	0.012839848175644875	0.034372854977846146	0.0024506128393113613	-0.005466921720653772	0.019521595910191536	0.028047962114214897	-0.009016956202685833	0.0012964194174855947	0.0019510622369125485	-0.0008741738274693489	-0.016044598072767258	0.02329407073557377	0.020295465365052223	0.01447756215929985	0.05832613259553909	0.022100131958723068	0.0024475310929119587	0.0015682016965001822	0.04981561377644539	0.026562659069895744	0.03950480371713638	0.03267144411802292	-0.019222725182771683	0.004549488425254822	-0.09357291460037231	-0.09675075113773346	-0.05457180738449097	-0.00614630151540041	0.05269443243741989	-0.05472410470247269	0.005551047623157501	0.01744687184691429	0.060244765132665634	-0.0428382009267807	0.0771339014172554	0.06565368175506592	0.046720024198293686	0.08780188113451004	-0.029399067163467407	-0.05792578309774399	-0.001748034032061696	0.014973738230764866	0.04068341851234436	0.061570651829242706	-0.043091561645269394	0.07108355313539505	0.025139406323432922	-0.027128618210554123	0.015176931396126747	0.004794588778167963	0.004571196157485247	0.006215069908648729	-0.009206713177263737	-0.014911223202943802	-0.054372016340494156	0.01120837964117527	-0.004007834009826183	-0.04374274984002113	0.029236409813165665	-0.025923749431967735	-0.11278100311756134	-0.02851088158786297	0.1664705127477646	-0.006859673652797937	-0.014983938075602055	-0.09367240220308304	0.015196666121482849	-0.10360854864120483	-0.012875564396381378	0.03883204609155655	-0.016742875799536705	-0.06071145087480545	0.01658635027706623	-0.015078108757734299	0.020293664187192917	-0.0038049472495913506	-0.030721966177225113	-0.01648355834186077	0.0048195417039096355	0.0617099404335022	-0.048767585307359695	-0.00044456738396547735	-0.008298700675368309	-0.028699401766061783	-0.05791329964995384	0.03454754501581192	0.007903968915343285	-0.04301449656486511	0.016211919486522675	-0.06138186901807785	-0.015885619446635246	-0.06327448040246964	-0.015248793177306652	0.04496457800269127	0.06910764425992966	-0.06009531021118164	-0.055214572697877884	0.006926337257027626	-0.04723361134529114	-0.02451624907553196	-0.07403770834207535	-0.08838053792715073	-0.047947246581315994	0.025963081046938896	-0.020318059250712395	-0.04645587503910065	-0.0342501699924469	0.020408786833286285	0.05391081050038338	0.041253481060266495	0.03925983980298042	-0.040683891624212265	0.03858165815472603	-0.011963560245931149	0.07160172611474991	-0.010660032741725445	0.03736118972301483	-0.04552566632628441	-0.015328986570239067	-0.03855469077825546	-0.017069485038518906	-0.009188459254801273	-0.000653502473141998	0.002888699993491173	-0.023830194026231766	0.00966557301580906	0.05129809305071831	-0.018076125532388687	-0.04891595244407654	0.07664245367050171	-0.024916259571909904	-0.04533013328909874	0.08382570743560791	0.0016391058452427387	0.05502635985612869	0.0660824254155159	0.0488310232758522	-0.03750162571668625	-0.06781445443630219	-0.033949367702007294	0.060893237590789795	-0.03380095958709717	0.019671672955155373	-0.02086099237203598	0.043447405099868774	-0.03931733965873718	0.04075375571846962	-0.007224713452160358	-0.05291350185871124	0.009917700663208961	-0.049381155520677567	0.008881811983883381	0.07072131335735321	-0.04898476228117943	-0.025820467621088028	-0.0002987362677231431	0.08198285102844238	-0.019573187455534935	-0.005229824688285589	-0.038177117705345154	-0.049949273467063904	0.0011253661941736937	0.07246782630681992	-0.08094718307256699	0.004929086193442345	0.009859655052423477	0.007172802928835154	-0.01798434555530548	0.016961058601737022	0.002211312297731638	0.006224427837878466	0.005904463119804859	-0.015548289753496647	-0.056618768721818924	-0.0481124185025692	0.0016676567029207945	0.00933461356908083	0.0008477118681184947	0.001707732561044395	0.030256081372499466	-0.021362418308854103	0.006004198454320431	0.05839359760284424	0.04059979319572449	-0.003104482078924775	-0.09883340448141098	0.006660311948508024	0.04152887687087059	0.015323887579143047	-0.026630965992808342	-0.021270617842674255	0.0816367045044899	-0.03991822898387909	-0.06458048522472382	-0.014069374650716782	0.08800586313009262	-0.009650051593780518	0.09801546484231949	-0.051753729581832886	-0.0381552055478096	-0.06612877547740936	0.05668928474187851	0.03615299612283707	-0.048087529838085175	-0.06907878816127777	0.042727500200271606	-0.04577590897679329	-0.0327814444899559	-0.05815199390053749	-0.004752516280859709	-0.04949869588017464	0.025610007345676422	-0.10632345825433731	0.035745635628700256	-0.059968139976263046	0.06689471006393433	-0.004974139388650656	0.008972669951617718	0.029351631179451942	0.004318459890782833	0.01908278279006481	0.05814114958047867	-0.035613179206848145	-0.05746571347117424	-0.022968843579292297	0.03518969193100929	-0.026414910331368446	-0.07310695946216583	-0.008456673473119736	-0.0010980694787576795	0.030320148915052414	-0.028966698795557022	0.010211815126240253	-0.005842351354658604	0.01998906396329403	-0.029974961653351784	0.048785459250211716	0.020140009000897408	-0.0006569197867065668	-0.061915602535009384	0.02251390740275383	-0.02142963372170925	-0.008210291154682636	-0.03176874294877052	0.040582191199064255	-0.011471630074083805	-0.006348452065140009	-0.00960531271994114	-0.05929107591509819	0.07295781373977661	-0.02532714232802391	0.028505418449640274	-0.03926795721054077	0.013681076467037201	-0.03612609952688217	0.015798047184944153	0.07287169247865677	-0.05354686081409454	0.04046384245157242	-0.01205569226294756	0.0021515560802072287	-0.0911395475268364	-0.028330327942967415	0.05835052207112312	-0.026822535321116447	0.050751231610774994	-0.025514710694551468	-0.06379209458827972	0.09273894131183624	-0.015582576394081116	0.030770916491746902	-0.041124485433101654	-0.023884844034910202	-0.028051892295479774	-0.03537511080503464	-0.042787473648786545	0.02534162625670433	0.02746775560081005	0.07195129245519638	-0.02311776764690876	0.07687380164861679	-0.003945987205952406	0.0674092248082161	0.04431363567709923	-0.0002461285621393472	0.004602151922881603	0.07017891108989716	-0.04817691445350647	-0.00014880241360515356	-0.011370576918125153	0.03290688246488571	-0.03570569306612015	0.050631165504455566	0.09225113689899445	-0.04911487177014351	0.021113848313689232	-0.030741028487682343	-0.018459049984812737	0.004523084033280611	0.07792223989963531	-0.008259427733719349	-0.05056052282452583	0.03448782488703728	-0.0409761518239975	0.03242220729589462	-0.010282752104103565	0.08463095128536224	0.029663793742656708	0.04181509092450142	-0.008332161232829094	-0.10025306791067123	0.039108578115701675	0.09128142893314362	0.03945779800415039	-0.0668322965502739	-0.04943083971738815	0.04511116072535515	0.005547323729842901	-0.034078821539878845	-0.02201668918132782	-0.004116267431527376	-0.05081796273589134	-0.009113894775509834	-0.020129522308707237	-0.034427665174007416	0.04362868890166283	-0.056520167738199234	-0.05277036502957344	-0.030022883787751198	-0.055243488401174545	0.02527560479938984	0.015066019259393215	-0.16386406123638153	0.06902099400758743	0.0035854242742061615	0.008546090684831142	0.006302207242697477	-0.0066306451335549355	-0.03779835253953934	0.022620350122451782	-0.05305581912398338
0.06015032157301903	0.057705968618392944	0.08254886418581009	0.04366238787770271	0.03838716819882393	-0.03724072501063347	0.04331379011273384	0.07078398019075394	-0.026435481384396553	-0.07361319661140442	-0.03226027637720108	-0.016762886196374893	-0.03537338227033615	-0.05264551192522049	0.010063746012747288	0.04572879150509834	0.05765639245510101	0.041396066546440125	0.04799647629261017	0.0344068743288517	-0.017362959682941437	-0.044511426240205765	0.08609335124492645	-0.07502671331167221	0.07028299570083618	0.016640324145555496	0.005632421467453241	0.048209987580776215	-0.07008950412273407	0.018067559227347374	-0.012237864546477795	0.03443969413638115	-0.01675819605588913	-0.006112593226134777	0.032064247876405716	-0.0610392801463604	0.07668492197990417	-0.02857097238302231	0.018261568620800972	-0.030129948630928993	4.154196722083725e-05	-0.013966163620352745	0.04121088609099388	-0.019414158537983894	0.08518417924642563	-0.08482825011014938	-0.04886849969625473	-0.014416203834116459	-0.0017859508516266942	-0.009880594909191132	-0.06158655509352684	0.0409202016890049	0.0009760989341884851	0.008332581259310246	-0.03134310618042946	0.07521647959947586	0.02073804661631584	-0.030985338613390923	-0.06122094765305519	-0.025820545852184296	-0.06447771191596985	-0.010923309251666069	0.05815242603421211	0.04209740832448006	0.02216530404984951	0.04755489155650139	0.027448898181319237	0.08274330943822861	0.011558637954294682	-0.03539765253663063	-0.014188164845108986	0.026458989828824997	-0.05419477820396423	-0.07547423243522644	-0.013925339095294476	-0.09708511084318161	0.0372922383248806	-0.06400743871927261	-0.03674992173910141	0.04259658232331276	0.014665434136986732	0.001639259746298194	-0.016259750351309776	0.02686089649796486	0.033734265714883804	0.003048799466341734	-0.010546467266976833	0.011733570136129856	0.0784841999411583	-0.030036138370633125	-0.022739367559552193	0.02402767539024353	0.03463480621576309	0.07573848962783813	-0.004494829103350639	-0.01989474706351757	0.02856512740254402	-0.016780471429228783	-0.08699498325586319	-0.022676929831504822	-0.029444439336657524	0.02288154512643814	0.0021666043903678656	0.025512922555208206	-0.01864757016301155	-0.043413352221250534	0.07003231346607208	0.0028832543175667524	0.047804348170757294	0.040654756128787994	0.004798464011400938	0.04400656744837761	-0.03981541469693184	-0.05668066442012787	-0.01794031448662281	-0.01885017566382885	0.0030733461026102304	-0.032299939543008804	-0.0435694083571434	-0.01871744729578495	0.029366090893745422	-0.041176218539476395	0.03953491151332855	0.04085072502493858	0.020184163004159927	-0.008791448548436165	-0.07741488516330719	0.04870852455496788	0.0776529610157013	-0.0066556427627801895	0.06059373915195465	-0.0007996444473974407	-0.01286278571933508	-0.0446193628013134	0.017842955887317657	0.005294209346175194	0.06093614548444748	0.04878154769539833	0.007185798604041338	-0.09387044608592987	0.02421000599861145	0.01640915311872959	-0.011597037315368652	0.04976876825094223	0.07714945822954178	0.039226993918418884	-0.03809741511940956	0.03301660344004631	-0.08600049465894699	0.05340862646698952	-0.08083855360746384	-0.014131252653896809	-0.02570183202624321	-0.035018596798181534	-0.04205585643649101	0.054134171456098557	-0.03668096289038658	-0.04357432946562767	0.03703242540359497	0.091598279774189	0.03438945114612579	-0.045559145510196686	0.0006815597298555076	-0.002001600107178092	0.03381096199154854	-0.0729517713189125	0.047420430928468704	-0.018786238506436348	6.989065877860412e-05	0.02977752313017845	0.024773303419351578	0.01243283785879612	0.07529812306165695	-0.09929519146680832	0.02886670082807541	0.04867320507764816	0.006544969510287046	0.009737540036439896	0.027047505602240562	0.032013796269893646	-0.008917626924812794	0.021603234112262726	0.022295799106359482	0.02925577387213707	-0.024621199816465378	-0.0006798839895054698	-0.03954165428876877	0.020194431766867638	0.024783723056316376	0.0019251902122050524	-0.05929329991340637	-0.04209904000163078	0.05660012364387512	-0.025031188502907753	0.024881692603230476	-0.07264713197946548	-0.041259024292230606	0.09819634258747101	0.002230251207947731	0.04631821811199188	-0.024180728942155838	0.02538585290312767	-0.022539829835295677	0.018822304904460907	-0.07988093793392181	0.001864786958321929	0.06819286942481995	0.016395926475524902	0.026591666042804718	-0.017078649252653122	-0.01196359470486641	0.05061027407646179	-0.045235440135002136	-0.0735747367143631	-0.06259875744581223	-0.025207461789250374	-0.03459937497973442	0.02945863828063011	-0.05411342531442642	-0.08474452793598175	0.011800370179116726	0.03087354078888893	0.04016641899943352	-0.06387448310852051	0.04764075204730034	0.013099359348416328	0.07745103538036346	0.060436051338911057	0.015022339299321175	-0.04851597175002098	-0.011894335970282555	0.01343076303601265	-0.013299725949764252	-0.0331161729991436	0.007261744700372219	-0.03694690018892288	-0.05384416878223419	0.08546052873134613	-0.01648183912038803	0.023407889530062675	-0.0397053025662899	0.010487006045877934	-0.00934135913848877	-0.01535595953464508	-0.03567083552479744	0.00029707764042541385	0.0069116526283323765	-0.010147317312657833	-0.03289297595620155	0.07899805158376694	-0.10365364700555801	0.034562043845653534	0.028011174872517586	-0.013553782366216183	-0.059663500636816025	0.066582590341568	0.09060443192720413	-0.05313409864902496	-0.02243838831782341	0.05252194032073021	0.052788957953453064	0.06438347697257996	-0.07619732618331909	-0.06393995881080627	-0.0025683408603072166	0.09562237560749054	0.0343843512237072	-0.0713077113032341	-0.05848751589655876	-0.06416666507720947	-0.05235067382454872	0.007382202427834272	0.013131503947079182	-0.049293115735054016	-0.052240364253520966	-0.046284280717372894	0.08305255323648453	0.03118150122463703	0.013489291071891785	0.031759995967149734	0.03624764084815979	0.046316731721162796	-0.041240666061639786	0.025330787524580956	-0.00683527160435915	-0.03646399453282356	-0.027676446363329887	0.02292930707335472	0.009121166542172432	-0.007238183170557022	-0.04023420065641403	0.002480374649167061	-0.04546770825982094	0.07620243728160858	0.01234269980341196	-0.0034766888711601496	0.019717099145054817	-0.06684037297964096	0.036002133041620255	0.048757389187812805	-0.07177907973527908	0.08181996643543243	0.030381513759493828	0.007346431724727154	0.042314935475587845	-0.045920755714178085	-0.08878059685230255	0.05354015529155731	-0.060940615832805634	-0.029052233323454857	-0.04014865309000015	-0.016903910785913467	-0.02173600159585476	0.01933540776371956	0.013611972332000732	-0.04058795049786568	-0.017335258424282074	0.020697234198451042	0.013164130039513111	0.03897159919142723	0.03995649516582489	-0.01845347322523594	-0.04638753458857536	-0.003083104034885764	0.06148236617445946	0.09319530427455902	-0.006666531786322594	0.05605454742908478	0.02338782325387001	0.03907141461968422	-0.08011180907487869	0.039964113384485245	-0.03986749425530434	0.07491934299468994	0.03629301115870476	0.017904147505760193	-0.03099410980939865	-0.035738904029130936	-0.027085477486252785	-0.010677704587578773	0.04248080775141716	0.024453798308968544	-0.029337307438254356	-0.014166146516799927	-0.07001214474439621	0.006583473179489374	0.009755875915288925	-0.019768089056015015	0.030844543129205704	0.01575571298599243	0.02330610901117325	-0.0340416245162487	0.04086202755570412	-0.08357682824134827	-0.06776206940412521	-0.06097061187028885	-0.07426468282938004	-0.013128502294421196	-0.045802488923072815	0.06452487409114838	-0.04546330124139786	0.03456936031579971	-0.09248589724302292	0.0315529964864254	0.03807566314935684	0.08002128452062607	-0.019250541925430298	-0.05400636047124863	0.0036582204047590494	0.06328903883695602	0.024635301902890205	-0.02857196144759655	-0.020629020407795906	0.0590122826397419	-0.03199610486626625	0.013276813551783562	0.036006029695272446	-0.008263731375336647	0.02296510897576809	0.07356644421815872	0.02447395958006382	-0.031730253249406815	0.023725926876068115	-0.053672902286052704	-0.028362590819597244	-0.0005889704334549606	-0.023646866902709007	0.044203560799360275	0.04216122627258301	-0.06501173973083496	0.028395000845193863	0.05761139839887619	0.04989508539438248	-0.08229155093431473	0.014256643131375313	0.05095193535089493	0.043954961001873016	0.037411585450172424	0.016822557896375656	-0.010262591764330864	-0.03567606210708618	-0.07211578637361526	-0.0908670574426651	0.040592800825834274	0.030955640599131584	0.021582739427685738	-0.05919012427330017	0.03505901247262955	0.007748852483928204	-0.023853834718465805	-0.036177147179841995	0.035968758165836334	-0.0351017601788044	0.017353452742099762	0.003942619077861309	-0.026169607415795326	-0.04125627502799034	0.045125704258680344	-0.001564897713251412	0.04944369196891785	0.0547139048576355	-0.002112017944455147	0.03505711257457733	0.019921237602829933	-0.04257301241159439	-0.03451085090637207	0.04444369301199913	-0.011644904501736164	-0.03981287404894829	0.016103079542517662	-0.03525036573410034	-0.01480821706354618	-0.0022069949191063643	0.018339969217777252	0.01589689776301384	0.03172897920012474	0.03193090856075287	-0.005619428586214781	-0.04077572375535965	0.023920219391584396	0.006102351937443018	0.038136597722768784	-0.0300114918500185	-0.0077924164943397045	0.025559989735484123	-0.10309051722288132	-0.023404352366924286	0.05688043683767319	-0.0922616645693779	0.03665543720126152	0.012940448708832264	0.04431354999542236	0.08694618195295334	0.028735851868987083	0.009024534374475479	-0.05867849290370941	-0.06006437540054321	-0.023612981662154198	-0.06581779569387436	0.0008652828400954604	-0.007440987508744001	0.056336648762226105	-0.09269196540117264	0.013732872903347015	-0.017284298315644264	0.04307546839118004	-0.022103171795606613	0.04708286374807358	0.005004381760954857	-0.022257821634411812	-0.056620609015226364	-0.001129592303186655	-0.04102566838264465	0.0627019926905632	-0.02663199044764042	0.06514819711446762	-0.0074150399304926395	0.052475474774837494	0.0031029677484184504	0.052585795521736145	0.015424417331814766	0.054432932287454605	0.023776739835739136	-0.0331827737390995	-0.01875186897814274	-0.0960865169763565	-0.0741226002573967	0.08390555530786514	-0.013942479155957699	-0.041965682059526443	0.03256470337510109	-0.03915577381849289	-0.06759278476238251	0.0011063932906836271	0.06168097257614136	0.024934696033596992	0.06009522080421448	-0.016582706943154335	0.04777741804718971	0.041104238480329514	-0.021089736372232437	-0.009273607283830643	-0.002065918641164899	0.046700041741132736	0.035552460700273514	0.01090569980442524	-0.030418870970606804	-0.06506513804197311	-0.005039939656853676	0.05658811703324318	-0.05387292057275772	-0.05896752327680588
-0.027966845780611038	-0.023338625207543373	0.0351460725069046	-0.0363328717648983	0.020654011517763138	-0.002450629835948348	-0.0633367970585823	0.007460274267941713	0.010144783183932304	0.060129564255476	0.021611232310533524	-0.02449187822639942	-0.027281930670142174	0.04311414808034897	0.015308678150177002	0.0939653143286705	0.018722563982009888	0.0057056560181081295	0.07589789479970932	0.019099129363894463	0.06677716970443726	-0.06304614245891571	0.02564403787255287	0.03414377197623253	0.07449831813573837	0.05419350415468216	0.009412824176251888	-0.016816185787320137	-0.054801907390356064	0.0005365760298445821	0.016106531023979187	0.024175159633159637	-0.07685111463069916	0.06400951743125916	-0.014511991292238235	-0.04321220889687538	-0.03000747226178646	0.027079494670033455	-0.021687105298042297	-0.014824915677309036	-0.014578630216419697	-0.02948812022805214	-0.010736984200775623	-0.005004425998777151	0.059710003435611725	0.007899782620370388	-0.012292183935642242	0.0765228271484375	0.044854093343019485	0.09875202178955078	-0.07389003038406372	-0.023697713389992714	-0.04240185767412186	-0.007447625510394573	0.00017938975361175835	-0.08684594184160233	0.049229733645915985	0.023503709584474564	0.02860986813902855	0.04861224442720413	-0.07394692301750183	0.02304796501994133	-0.0061759850941598415	0.06776370108127594	-0.015221725217998028	-0.07069161534309387	-0.004180241841822863	0.028930626809597015	-0.002588320290669799	0.018563637509942055	-0.08028101921081543	-0.059502605348825455	-0.026469117030501366	0.06417129933834076	-0.0030445337761193514	0.04951222613453865	0.03815782070159912	-0.025063540786504745	-0.0435972698032856	-0.00023512606276199222	0.007792677730321884	0.01965630054473877	-0.06148727983236313	0.026951506733894348	0.018691955134272575	-0.03291839361190796	0.022080793976783752	-0.016832593828439713	-0.012764685787260532	-0.025485729798674583	-0.0020649502985179424	0.02401687204837799	0.06350486725568771	-0.04331459850072861	0.007093383930623531	0.043465953320264816	0.021545402705669403	0.07400348037481308	-0.03429288789629936	-0.0315881222486496	0.08603867143392563	0.05777180939912796	-0.05613360181450844	0.01810702495276928	-0.02761249430477619	0.04061739146709442	0.07272477447986603	-0.03960055485367775	-0.00041795126162469387	-0.07468662410974503	-0.035656921565532684	-0.0375412292778492	-0.04289062321186066	-0.08040423691272736	0.048486556857824326	-0.028327634558081627	-0.020116455852985382	-0.008555786684155464	-0.05992887541651726	0.006641865242272615	0.016108660027384758	-0.021909963339567184	0.031014392152428627	0.006566103082150221	-0.024743685498833656	-0.02988361567258835	-0.009654576890170574	0.047522589564323425	0.007875588722527027	0.020838361233472824	0.024683892726898193	-0.05034250020980835	0.06358004361391068	-0.04029250144958496	-0.03490643948316574	0.002431036438792944	0.002934696152806282	0.005656905937939882	1.936860371642979e-06	-0.07400569319725037	-0.06484031677246094	0.021202541887760162	-0.030858011916279793	0.06857367604970932	0.012192769907414913	-0.0823264867067337	-0.00039941866998560727	-0.04615265130996704	0.0141691779717803	0.011345076374709606	0.004079686477780342	0.020018797367811203	0.03082524612545967	-0.022172164171934128	-0.009742563590407372	-0.011626099236309528	-0.06359493732452393	-0.06480840593576431	-0.012961480766534805	0.022694429382681847	-0.012481724843382835	-0.035631388425827026	0.04213672876358032	-0.04159126430749893	-0.08171641081571579	-0.036803409457206726	-0.06463983654975891	0.036313217133283615	-0.02985437959432602	0.05235894024372101	0.07968629896640778	0.046160683035850525	0.03855017200112343	-0.04870090261101723	0.03349161893129349	-0.018240652978420258	-0.015331233851611614	-0.09724245220422745	0.04430735856294632	0.04123830050230026	-0.0472663976252079	-0.012740997597575188	0.01370266918092966	-0.04250583052635193	-0.008944772183895111	0.007607519626617432	-0.05073811113834381	3.188140908605419e-05	0.021821120753884315	0.01517422590404749	-0.026176180690526962	-0.07226410508155823	-0.019531473517417908	-0.015038779005408287	0.06999599188566208	0.052496571093797684	-0.034054454416036606	0.08009826391935349	0.06843133270740509	-0.04083063080906868	-0.002926636254414916	0.0026439069770276546	0.04177243262529373	0.06764711439609528	-0.08168906718492508	0.025331469252705574	-0.042230382561683655	0.05677986145019531	-0.0037196562625467777	0.07387904077768326	0.007889945060014725	-0.014535862021148205	-0.06908342987298965	-0.0352439358830452	-0.009541877545416355	-0.041439179331064224	0.01788722537457943	-0.03912537917494774	-0.0224162507802248	-7.256292155943811e-05	-0.03910011053085327	0.0001287019986193627	0.012283742427825928	0.05218873545527458	-0.0018573818961158395	-0.009897325187921524	0.043010979890823364	-0.024937348440289497	-0.011476349085569382	-0.013887682929635048	-0.06949432939291	0.008806969039142132	-0.01838042214512825	0.09009584039449692	-0.01626219041645527	0.06431051343679428	-0.028389206156134605	-0.040591634809970856	0.03562003746628761	-0.013256448321044445	0.061557210981845856	0.042326781898736954	-0.0299567561596632	0.02630854770541191	-0.003359747352078557	-0.02867197059094906	-0.005172397941350937	-0.07210829854011536	0.05083794891834259	-0.023314207792282104	-0.0785919576883316	-0.0338294617831707	0.04213239252567291	0.017433760687708855	-0.037074487656354904	-0.010699249804019928	0.04458348825573921	-0.06449763476848602	0.008661781437695026	0.05928342416882515	0.005087363533675671	-0.00754146883264184	-0.013492748141288757	0.08216363191604614	0.03812751546502113	0.030336299911141396	0.034378618001937866	-0.0337551049888134	0.05571731552481651	0.027403876185417175	-0.05137098580598831	-0.005042875185608864	-0.09190213680267334	0.02196945995092392	-0.07912534475326538	-0.057906560599803925	0.052971962839365005	-0.004003166686743498	0.04515402764081955	-0.0722694918513298	-0.02104501612484455	0.022776585072278976	-0.013919456861913204	0.013521094806492329	-0.02383684366941452	-0.028219785541296005	-0.047081358730793	0.04870292916893959	-0.042525701224803925	0.09061450511217117	-0.055032406002283096	-0.053516726940870285	0.03384990245103836	0.03341468423604965	-0.04385148361325264	-0.062010083347558975	0.006607521325349808	0.062416210770606995	-0.01938197948038578	-0.008986000902950764	0.06579772382974625	0.07635355740785599	-0.035788457840681076	0.07370928674936295	0.04759466275572777	0.07261836528778076	-0.07588522136211395	0.06657187640666962	0.03905041515827179	-0.05391718074679375	0.019194165244698524	0.08267541974782944	-0.02177818864583969	-0.0340963713824749	0.03827627748250961	-0.02073625847697258	0.0306877288967371	-0.009321521036326885	-0.050525255501270294	-0.04413529857993126	0.004518365487456322	0.0034293001517653465	0.06811054795980453	0.06649278104305267	0.026765139773488045	-0.058639492839574814	-0.03847721964120865	-0.024529585614800453	-0.0013536277692764997	-0.05098304525017738	-0.0608823299407959	-0.024396052584052086	-0.0186329185962677	0.07457966357469559	-0.0030519322026520967	0.028186671435832977	-0.04801473394036293	0.06884267181158066	-0.06656254827976227	0.029658546671271324	-0.05448004603385925	-0.003737724618986249	0.02860923670232296	-0.06561551988124847	-0.08007489144802094	-0.05311116576194763	-0.057505711913108826	-0.02773808129131794	-0.03309903293848038	-0.005894921254366636	0.030251191928982735	-0.03289661929011345	0.051310859620571136	-0.005008292850106955	-0.05275300517678261	-0.011171837337315083	-0.08107861131429672	-0.004171045497059822	-0.012503447942435741	0.0029338484164327383	-0.0415911041200161	0.07212548702955246	-0.03515559434890747	0.004827294498682022	0.026262184605002403	-0.013713615946471691	0.04903199523687363	-0.01693296618759632	-0.06771010160446167	0.018545450642704964	-0.06618184596300125	-0.025331851094961166	-0.04292131960391998	-0.027449956163764	0.07237356901168823	0.00026742328191176057	0.022172344848513603	-0.06303423643112183	-0.021555420011281967	0.06192350015044212	0.08009035140275955	-0.061277955770492554	0.04848070815205574	-0.04260958358645439	0.04793085530400276	-0.018933555111289024	0.08014373481273651	0.03656088188290596	0.05132029578089714	0.09648267924785614	0.07451776415109634	0.03630698472261429	0.04216356575489044	-0.027513345703482628	0.006404020357877016	0.059442225843667984	0.013053973205387592	-0.014496888965368271	-0.07341139763593674	0.012715671211481094	0.07129347324371338	-0.018085958436131477	0.018010897561907768	0.03136680647730827	-0.020871277898550034	0.0916905403137207	-0.05075559765100479	-0.06118349730968475	0.027486298233270645	-0.023155704140663147	-0.015867430716753006	0.02783590741455555	0.061848681420087814	-0.013266786001622677	-0.03120373748242855	0.014482331462204456	-0.034522075206041336	-0.06384535133838654	0.016338873654603958	0.051379553973674774	0.009502096101641655	-0.016754882410168648	0.01643398217856884	-0.005053163971751928	0.006614192854613066	-0.06357911974191666	-0.031414199620485306	-0.08227764070034027	0.08122169226408005	0.02461642399430275	-0.08946209400892258	-0.018943043425679207	-0.03952379152178764	0.005230777431279421	-0.04624081403017044	0.040172092616558075	0.031184619292616844	0.038813650608062744	-0.014100221917033195	-0.05053293704986572	0.04484802857041359	-0.061383772641420364	0.011460987851023674	0.042034562677145004	-0.004937421530485153	-0.08592452853918076	-0.021748410537838936	-0.041242364794015884	-0.0006227369303815067	-0.07641148567199707	0.03647191449999809	-0.0019292018841952085	0.05776035785675049	0.07598482817411423	0.06471137702465057	-0.051943596452474594	-0.001770111732184887	0.08298446983098984	0.0019133222522214055	0.054098185151815414	0.022395338863134384	-0.06633304804563522	0.006503635086119175	-0.04198284074664116	0.038312364369630814	-0.011305565945804119	-0.0014358351472765207	0.08446481078863144	0.06385648995637894	-0.0071536218747496605	-0.01821001246571541	-0.017830941826105118	-0.07357723265886307	0.017612101510167122	-0.030166685581207275	0.03278261050581932	-0.01476437970995903	0.07472676038742065	0.03183525428175926	0.05140584707260132	0.04999604821205139	0.03590773791074753	-0.031314752995967865	0.03134482353925705	-0.08030048757791519	0.029186932370066643	0.0049836477264761925	0.061724744737148285	0.011887249536812305	-0.05385773256421089	0.0015901747392490506	-0.051675304770469666	-0.05911586806178093	-0.03077591583132744	-0.017545435577630997	-0.005872897803783417	0.017418839037418365	0.02683185413479805	-0.04018378257751465	-0.009704637341201305	0.02579076960682869	0.03791738301515579	-0.05361367017030716	-0.0702369436621666	0.07867071032524109	-0.042797766625881195	0.05702786147594452	-0.05252804979681969	-0.03841055929660797	0.08080758899450302	0.05365556851029396	-0.01636580191552639
0.0376119390130043	0.003012064378708601	-0.07443734258413315	0.036977365612983704	-0.06141286343336105	0.03188299015164375	0.0032793700229376554	-0.004974921699613333	-0.06539884209632874	0.027061475440859795	-0.05189329385757446	-0.012950479052960873	0.05489499494433403	-0.025021955370903015	0.025564521551132202	0.043855566531419754	-0.028746871277689934	-0.016509128734469414	-0.023934584110975266	-0.07956212759017944	-0.042522259056568146	-0.0882488265633583	0.016453824937343597	-0.02911853976547718	-0.02937714383006096	0.006822978612035513	0.0631117895245552	0.054618626832962036	0.04779379814863205	-0.012702075764536858	0.028757069259881973	0.029221197590231895	-0.018784549087285995	-0.07609064877033234	0.03892027959227562	-0.03257839381694794	0.019870297983288765	-0.03153829276561737	-0.0715976282954216	0.04426112025976181	0.038399484008550644	-0.05678712576627731	-0.05274674668908119	0.03377342224121094	0.08687674254179001	-0.007821629755198956	0.0071975672617554665	0.005976757500320673	-0.020168820396065712	0.08594251424074173	-0.040096282958984375	-0.01134773250669241	-0.08195851743221283	-0.043997570872306824	-0.03878378868103027	-0.03447720408439636	0.062017977237701416	-0.01534443162381649	0.056917108595371246	-0.01717919111251831	-0.05815695971250534	0.008341318927705288	-0.028875183314085007	0.04500255361199379	0.009085915982723236	-0.014794006943702698	0.06054721400141716	0.009664681740105152	-0.018327465280890465	0.04313887283205986	-0.03353431820869446	0.023415647447109222	0.07244841009378433	-0.04103818163275719	-0.06609582901000977	0.029250439256429672	0.053505461663007736	-0.040429096668958664	-0.017386559396982193	-0.007350817788392305	-0.027685027569532394	0.006483712233603001	-0.04461515694856644	0.055699240416288376	-0.0022345760371536016	-0.02297379821538925	-0.006320408545434475	0.03925757855176926	0.07882929593324661	0.05638338625431061	-0.06398455053567886	0.06766270101070404	0.04826784506440163	-0.056326765567064285	-0.04731889069080353	-0.018985921517014503	0.08254583925008774	0.06348422914743423	0.033503562211990356	-0.08420296758413315	0.028642453253269196	0.05244710296392441	-0.023483796045184135	-0.011983122676610947	-0.03157327324151993	-0.029224352911114693	-0.006421277765184641	-0.0003294810885563493	-0.052300576120615005	-0.05073806270956993	0.05198563262820244	-0.024390585720539093	0.06935493648052216	-0.054848812520504	-0.01102233212441206	-0.03909111022949219	0.01881382241845131	0.006999555509537458	0.03316282853484154	-0.040867846459150314	-0.08132212609052658	-0.04072413221001625	0.022680914029479027	0.03307538852095604	-0.027226250618696213	0.058557502925395966	-0.07152923196554184	-0.03922896459698677	0.060714393854141235	0.06686130166053772	-0.001273294328711927	-0.0004713694506790489	0.06119995936751366	-0.012577286921441555	-0.02185157686471939	0.019660955294966698	-0.007742833811789751	0.00153912918176502	-0.042947035282850266	0.037754181772470474	-0.05955973640084267	0.05907163769006729	-0.003748302347958088	0.03596245497465134	0.02067698910832405	-0.035105761140584946	-0.0049808453768491745	-0.08201782405376434	-0.061951469630002975	-0.024798037484288216	0.009983858093619347	0.011347592808306217	0.003673385363072157	0.0017946976004168391	-0.0573289729654789	-0.012515725567936897	0.06476481258869171	0.031256724148988724	-0.07277004420757294	0.05759425088763237	0.030003251507878304	-0.011051837354898453	0.015860360115766525	0.011755064129829407	-0.007585592567920685	-0.03649397939443588	-0.011713833548128605	0.05350526422262192	-0.046023689210414886	-0.0004389171954244375	-0.007218431681394577	-0.014959105290472507	0.0203702375292778	0.027410490438342094	0.04629489406943321	-0.08517475426197052	-0.03410395607352257	-0.08947398513555527	0.04621211066842079	0.08261276036500931	-0.07545460760593414	-0.011358357965946198	-0.0486312061548233	-0.015488111414015293	0.0002467093581799418	0.07319743931293488	-0.08771459758281708	-0.0029289082158356905	-0.05440209060907364	0.05140187218785286	-0.027554212138056755	-0.02056647464632988	0.006809101905673742	-0.037424419075250626	-0.06536881625652313	-0.03587134927511215	-0.0026613115333020687	0.08931287378072739	-0.04804947227239609	-0.052277542650699615	0.03000217117369175	0.003229809459298849	-0.0060112932696938515	0.026825034990906715	0.013819262385368347	0.017416739836335182	-0.0587112158536911	-0.0300733745098114	0.07819298654794693	0.04310815408825874	0.048070576041936874	-0.06888225674629211	-0.05488905683159828	-0.03263508528470993	-0.02814263477921486	-0.06390882283449173	0.04788093641400337	-0.029440652579069138	-0.08926310390233994	-0.044941846281290054	-0.0718826875090599	0.03490953519940376	-0.012888617813587189	-0.018392382189631462	0.020759208127856255	-0.04020584002137184	0.0354965440928936	0.01871746964752674	0.05098990723490715	-0.01793176680803299	-0.07205348461866379	-0.04374270141124725	-0.07976506650447845	-0.026249082759022713	-0.0816696435213089	0.06953970342874527	-0.020136995241045952	-0.057986363768577576	-0.032309241592884064	0.07447602599859238	0.0453459806740284	0.02054494060575962	-0.0639398917555809	-0.04523167759180069	-0.008849429897964	0.06994280219078064	-0.06236177682876587	-0.03633028268814087	0.057159554213285446	0.06891996413469315	-0.0898907259106636	0.057591330260038376	0.019689686596393585	0.04801410436630249	0.03922031819820404	0.008587601594626904	-0.00652976194396615	-0.038946229964494705	-0.051640577614307404	-0.003992650657892227	0.038622722029685974	-0.0024983237963169813	-0.0008568516350351274	0.011196211911737919	0.024196738377213478	0.022928956896066666	0.04711386188864708	-0.03505122289061546	0.06556510180234909	-0.055284284055233	-0.0350506491959095	0.010825631208717823	-0.03129751607775688	-0.029120298102498055	-0.03407701104879379	0.020082833245396614	0.036797743290662766	0.04039963707327843	0.010129052214324474	-0.06487983465194702	-0.0071002282202243805	0.012702170759439468	-0.010216211900115013	-0.040813423693180084	-0.06785213202238083	0.0650278851389885	-0.05317836254835129	0.07935076206922531	-0.011795680969953537	-0.03934832289814949	0.027238935232162476	-0.005348046310245991	0.08485129475593567	-0.018991589546203613	0.0217087734490633	-0.0663791298866272	-0.05833731219172478	0.020407766103744507	-0.06812724471092224	0.06059739366173744	-0.011781664565205574	0.030515089631080627	-0.028770580887794495	0.045132096856832504	-0.08897910267114639	-0.01354055292904377	-0.013621240854263306	0.00190104974899441	0.064228855073452	0.019635673612356186	-0.038497235625982285	0.024301890283823013	0.04066415876150131	-0.008827406913042068	0.003481147112324834	-0.06366944313049316	-0.04984045773744583	0.007453752215951681	0.01716228574514389	0.060860224068164825	0.056070342659950256	-0.006276319269090891	-0.04329166188836098	-0.04432188719511032	0.01334316749125719	-0.01104628574103117	-0.05033447965979576	0.07897551357746124	0.019305052235722542	-0.01708265393972397	-0.008755259215831757	0.010708140209317207	-0.03437914326786995	0.07113036513328552	0.04550984129309654	0.04200524836778641	-0.020792558789253235	0.08686826378107071	-0.00019641168182715774	0.014346684329211712	-0.01341228000819683	-6.390006456058472e-05	-0.03965228796005249	-0.06047827750444412	-0.025723328813910484	0.010118823498487473	-0.06586424261331558	-0.031084852293133736	0.0302592720836401	-0.0035686655901372433	0.003624724457040429	0.02667047455906868	0.08241380006074905	0.041841741651296616	0.024250637739896774	0.01956203207373619	-0.07545313984155655	0.025073176249861717	0.004096450284123421	0.04273202642798424	-0.055583562701940536	-0.04111607000231743	-0.053530432283878326	0.017966659739613533	0.006624579895287752	-0.009332915768027306	0.07926923036575317	-0.0759323388338089	-0.06758751720190048	0.005631298292428255	0.027971958741545677	0.0551723912358284	0.055725883692502975	-0.016797762364149094	0.02989831194281578	-0.00355939450673759	0.07059072703123093	-0.027195250615477562	0.0075663011521101	-0.08484457433223724	-0.014494460076093674	0.032912109047174454	0.06243843212723732	-0.014661886729300022	0.003216387005522847	-0.011966141872107983	0.013249947689473629	-0.049372460693120956	0.053860485553741455	0.061208128929138184	-0.017599305137991905	-0.07442013919353485	0.03653330355882645	-0.013403997756540775	0.01009050291031599	-0.013959373347461224	0.0062512182630598545	0.03325323015451431	0.053236786276102066	-0.02705465815961361	0.04841745272278786	0.016628272831439972	-0.028668077662587166	-0.02675263211131096	-0.03039802424609661	0.08526020497083664	-0.05749024078249931	-0.07974901050329208	0.043453145772218704	-0.03401758894324303	-0.01852436177432537	-0.08083576709032059	0.015290671959519386	0.011450683698058128	-0.0007642049458809197	0.061811115592718124	-0.01276461873203516	-0.02395833469927311	0.005175871774554253	0.07883314788341522	-0.04178401827812195	0.024704819545149803	0.029219860211014748	-0.02546549402177334	0.029316315427422523	-0.015214958228170872	0.02417326718568802	-0.08323248475790024	0.0240890234708786	-0.025595642626285553	-0.05072841793298721	-0.03964681178331375	-0.05496680364012718	-0.040537431836128235	-0.03743381053209305	-0.012764218263328075	0.005611970089375973	-0.05885327607393265	-0.036866411566734314	-0.07231584191322327	-0.030883191153407097	-0.0013920373748987913	0.04240358993411064	-0.026611313223838806	0.0358438640832901	-0.010818291455507278	0.02709370292723179	0.04556644335389137	-0.07448413968086243	0.06654013693332672	-0.06027660891413689	0.02623075805604458	-0.028648264706134796	0.07983893901109695	-0.05216579511761665	-0.07432013750076294	0.007398318499326706	0.03646199777722359	-0.04231512174010277	0.011608771048486233	-0.021738000214099884	-0.01226109266281128	-0.06434780359268188	0.07555525749921799	0.01509953010827303	0.03682112321257591	0.03243344649672508	0.07490184158086777	0.08721919357776642	0.06416799873113632	-0.03298063203692436	-0.05095214769244194	-0.002124340506270528	0.03313739597797394	0.03524933010339737	0.07247206568717957	-0.03721211850643158	0.06754006445407867	0.0664978101849556	-0.00660453736782074	-0.04542190954089165	-0.0015194948064163327	0.07325612753629684	-0.057860296219587326	0.0015739271184429526	0.019240692257881165	0.05141538754105568	0.05776067450642586	0.053227122873067856	-0.03484712168574333	-0.0006553684361279011	-0.08337404578924179	-0.016743022948503494	0.001089536934159696	0.07515164464712143	-0.03128300607204437	0.049754705280065536	0.01621454767882824	-0.007858223281800747	-0.016009610146284103	-0.07042258232831955	-0.01261086855083704	-0.03997224569320679	0.021055439487099648	0.04483484476804733	0.03439519181847572	0.052315715700387955	-0.01862710528075695	-0.02225726842880249	-0.026839479804039	-0.04242542386054993	-0.00279379915446043
-0.012171591632068157	-0.011583606712520123	-0.0024589195381850004	0.04228191822767258	-0.009659937582910061	0.05704309046268463	-0.04719781503081322	-0.08878689259290695	0.014181926846504211	0.05549919232726097	-0.0194726400077343	-0.038475845009088516	-0.03773687407374382	-0.007433141581714153	-0.06618691235780716	0.03294532373547554	0.02287762053310871	0.015498696826398373	0.0487341471016407	-0.011004936881363392	0.03271292522549629	0.05133175849914551	0.06667380034923553	0.0044601308181881905	0.004431589972227812	-0.02898300439119339	0.024767126888036728	-0.011902827769517899	0.04799915477633476	0.0150479506701231	0.04831648990511894	0.04627428203821182	-0.007265298627316952	-0.012195225805044174	0.011753195896744728	0.0009022496524266899	0.02842777781188488	0.001358143286779523	0.05626845359802246	-0.0032430021092295647	0.031084593385457993	0.002760909963399172	0.029800625517964363	-0.03817586600780487	-0.005793616641312838	-0.015699079260230064	-0.06053359806537628	0.05064825713634491	-0.03689555823802948	0.01930742710828781	0.021823221817612648	-0.054040901362895966	0.1218399778008461	0.11618048697710037	0.002686810912564397	-0.01667342707514763	0.02554556168615818	0.021172432228922844	0.018766751512885094	-0.015666987746953964	0.0006670863949693739	-0.043256014585494995	-0.03257105499505997	0.016169069334864616	-0.0007062155054882169	-0.0063733444549143314	-0.007213504984974861	-0.07435967773199081	0.024264687672257423	0.0731152817606926	-0.010783962905406952	0.0454794317483902	-0.05877213552594185	-0.04841071367263794	0.023423846811056137	-0.04244836047291756	-0.0430193692445755	0.011201023124158382	-0.063240647315979	-0.004215414635837078	0.015435534529387951	0.07983122020959854	0.024099081754684448	-0.01141438353806734	-0.020620953291654587	0.015971995890140533	-0.03442671522498131	0.043754953891038895	0.03233736380934715	0.046070076525211334	-0.017948556691408157	0.019699273630976677	0.018468111753463745	0.036372456699609756	0.027271803468465805	0.016116473823785782	-0.03194448724389076	-0.036888957023620605	0.053230542689561844	0.020762013271450996	-0.026305066421628	-0.019384626299142838	0.04301206022500992	0.02011544443666935	0.04231400787830353	-0.011715568602085114	-0.03996746242046356	0.023602033033967018	0.010160936042666435	0.009992679581046104	-0.0009158529574051499	0.012210272252559662	-0.022913336753845215	0.003670568112283945	-0.0018042305018752813	0.06072307005524635	-0.05363629013299942	-0.07157858461141586	-0.003630050690844655	0.05259127914905548	-0.047811057418584824	-0.0037200022488832474	0.001701473374851048	0.0022882213816046715	0.03616054728627205	0.05967100337147713	0.03692668303847313	-0.013307331129908562	-0.018730880692601204	-0.00048659779713489115	0.024452345445752144	-0.012937329709529877	0.1292559951543808	0.1326475292444229	0.026698358356952667	0.035901181399822235	0.0694139376282692	-0.012143216095864773	-0.027036886662244797	-0.013020992279052734	-0.03984808549284935	0.004537226632237434	0.05096696689724922	-0.010446821339428425	0.04531971737742424	0.01328479964286089	-0.002449177671223879	0.003070648293942213	0.006714974530041218	0.0010877541499212384	0.021859170868992805	0.054516348987817764	-0.06716382503509521	-0.03063991852104664	-0.013097009621560574	-0.04076896235346794	0.023098893463611603	0.018678788095712662	0.04070514813065529	-0.027173271402716637	0.025965042412281036	-0.04296649247407913	-0.003246393520385027	0.017484499141573906	-0.002051511313766241	0.023786203935742378	-0.0029644041787832975	0.067350834608078	-0.03433307632803917	-0.07573975622653961	-0.010092341341078281	-0.002639609621837735	0.076308473944664	0.031154779717326164	-0.014540965668857098	0.06819500029087067	0.06897370517253876	0.00977145042270422	-0.0067402976565063	-0.03177867829799652	0.02884392812848091	0.07913408428430557	-0.030145524069666862	-0.01821424439549446	-0.028951263055205345	-0.015450643375515938	0.04228482022881508	-0.003910415805876255	0.07163931429386139	0.02117070183157921	-0.02184375934302807	0.013140068389475346	0.023536426946520805	-0.02463199757039547	-0.034863293170928955	-0.10656793415546417	-0.024345826357603073	0.02950674667954445	-0.0376969613134861	0.009212150238454342	-0.009032852947711945	0.05411830544471741	0.0273427814245224	0.0201532244682312	-0.022790133953094482	-0.03026334010064602	0.018390795215964317	-0.01361498236656189	0.02264378033578396	-0.0034525422379374504	0.009718196466565132	0.03566833212971687	-0.029603974893689156	-0.0194916520267725	0.03744162246584892	-0.024291956797242165	0.05478882044553757	-0.03447974473237991	0.0018006404861807823	-0.011328183114528656	0.015698520466685295	0.010286522097885609	-0.005240526981651783	0.04772061109542847	-0.009184165857732296	-0.03886746987700462	-0.03192419931292534	-0.010931101627647877	-0.028940413147211075	0.017194116488099098	-0.007676105014979839	-0.10288767516613007	0.04920704662799835	0.1454131305217743	-0.01328321360051632	0.0004784622578881681	-0.017732826992869377	0.047644518315792084	-0.1046837642788887	-0.0033943550661206245	0.012825904414057732	0.04515969380736351	-0.03435373678803444	-0.0042315032333135605	-0.041093844920396805	-0.016352666541934013	0.04718700796365738	-0.01220565102994442	0.015332686714828014	0.022406479343771935	0.08328022807836533	0.08834852278232574	0.03483812138438225	-0.015408710576593876	0.08574280142784119	-0.034804780036211014	-0.04300393909215927	0.07674355059862137	-0.02355504222214222	-0.016598345711827278	-0.06622331589460373	-0.023126697167754173	-0.040616847574710846	0.05347978696227074	0.02214054763317108	-0.06716059148311615	-0.017626319080591202	-0.10293003171682358	0.036101073026657104	-0.0372699610888958	0.01240941509604454	-0.040506307035684586	-0.05125034227967262	-0.04607376083731651	0.0023206041660159826	-0.07581870257854462	-0.06800667196512222	-0.08957982808351517	0.0476221889257431	0.06563244014978409	0.035040441900491714	-0.017950162291526794	0.03156961128115654	0.06815188378095627	-0.03667152300477028	0.09086251258850098	0.035450082272291183	0.0548437163233757	-0.07614435255527496	0.06365975737571716	-0.04452621191740036	-0.05533042922616005	-0.056674785912036896	-0.06302633136510849	0.014447564259171486	0.0364694744348526	-0.024709004908800125	0.037021614611148834	0.02340567298233509	0.0006637039477936924	-0.02813880145549774	-0.004398692864924669	-0.08101752400398254	0.009897598065435886	-0.034476302564144135	0.043461307883262634	0.07837647944688797	0.023641465231776237	-0.028638755902647972	-0.06031655892729759	0.04299498721957207	-0.03241053223609924	-0.04838275536894798	0.010345016606152058	-0.0027837802190333605	-0.034500788897275925	-0.016686279326677322	0.0035813143476843834	-0.05739751085639	-0.0129648856818676	0.023921681568026543	-0.021054094657301903	0.012303624302148819	0.04174979031085968	0.002030832227319479	-0.008405173197388649	-0.04007009044289589	0.036716707050800323	0.045817114412784576	-0.01314097922295332	-0.002569658448919654	-0.07057900726795197	0.025600921362638474	0.05410175025463104	-0.08251169323921204	0.007498280145227909	0.07193797826766968	0.03987617418169975	-0.023973049595952034	-0.02235853485763073	-0.027864649891853333	-0.042122870683670044	0.01485826913267374	0.013630961999297142	-0.06197067350149155	0.026162266731262207	0.04339935630559921	0.040474165230989456	0.012725215405225754	0.022993270307779312	-0.07625775784254074	0.012845704331994057	0.04231802746653557	0.056121908128261566	-0.05584701523184776	-0.028062066063284874	-0.10144270211458206	-0.0493420846760273	0.014909393154084682	-0.004133371636271477	0.058508146554231644	-0.03316369652748108	0.1196713000535965	-0.020234927535057068	-0.04288190230727196	0.09532821923494339	0.09909942001104355	0.051962994039058685	0.07368641346693039	0.0022919473703950644	0.02298896573483944	-0.07764805853366852	0.019346565008163452	0.041971296072006226	-0.07958734780550003	-0.079116590321064	0.024180717766284943	-0.04053610563278198	0.027326518669724464	-0.09525298327207565	-0.016538722440600395	-0.011339595541357994	-0.021756066009402275	-0.09220559149980545	0.031959693878889084	-0.08447159081697464	-0.009471558034420013	-0.045914214104413986	0.049339134246110916	0.022549334913492203	0.03858112916350365	0.013897862285375595	0.0004210982588119805	-0.10963254421949387	-0.06687011569738388	-0.029411999508738518	-0.012487045489251614	0.02593989111483097	-0.09146134555339813	0.07002391666173935	0.0188999492675066	0.02571382187306881	0.019342584535479546	-0.011637549847364426	0.00732002779841423	0.015513730235397816	-0.005899662617594004	0.04143863543868065	0.046696655452251434	-0.05367214232683182	-0.07783172279596329	0.01428167149424553	-0.023921405896544456	0.05354660749435425	-0.07086174935102463	0.04124091938138008	-0.07162120938301086	-0.04233654960989952	-0.027411863207817078	-0.03455633670091629	0.04193441569805145	-0.059718482196331024	-0.02669237181544304	0.0036888103932142258	-0.001103706075809896	-0.003609677078202367	-0.026867283508181572	0.045296456664800644	0.02408835105597973	0.07873072475194931	-0.019574668258428574	-0.013815880753099918	-0.007251918315887451	-0.0799698457121849	0.03927905485033989	0.007740523666143417	-0.011973701417446136	0.04222948104143143	-0.01810695230960846	0.1161155253648758	-0.023746222257614136	-0.033407095819711685	0.07900386303663254	-0.0324367880821228	0.044147100299596786	-0.0058034323155879974	-0.0665876567363739	0.035197559744119644	0.028365107253193855	0.006149281747639179	0.012538223527371883	0.00878217164427042	-0.06662971526384354	-0.013351481407880783	-0.027881471440196037	0.049310650676488876	0.016293764114379883	-0.027122100815176964	-0.020966656506061554	0.009579547680914402	0.04454987496137619	0.011621561832726002	0.058983445167541504	0.04516707733273506	0.0770331397652626	-0.0502641461789608	0.05636795237660408	-0.017070157453417778	0.010503589175641537	0.05912235006690025	0.05611313134431839	0.08477947115898132	0.015239457599818707	0.015705382451415062	0.08781416714191437	-0.000806536350864917	0.010795109905302525	0.060658376663923264	0.0306964423507452	0.0684252679347992	0.009973905980587006	-0.05001420900225639	0.053656019270420074	0.09893521666526794	0.029080793261528015	-0.01906229369342327	-0.08657004684209824	0.023028727620840073	-0.01368463784456253	0.03316705301403999	0.013902012258768082	-0.05455344170331955	-0.017090842127799988	-0.035824477672576904	0.017457060515880585	-0.046995241194963455	0.03599981963634491	-0.033279575407505035	0.023359136655926704	-0.06364312022924423	-0.04954979196190834	0.015477273613214493	0.04976830258965492	-0.14450107514858246	0.04171562194824219	0.04888518527150154	-0.042445991188287735	0.005560111720114946	-0.018065523356199265	-0.02996806427836418	0.0061852894723415375	-0.04460861161351204
0.02672419883310795	-0.06862273812294006	0.07909739017486572	0.030327262356877327	-0.07137730717658997	-0.05856914445757866	-0.06202034652233124	-0.04989516735076904	0.005935239139944315	-0.02804308570921421	0.02857987955212593	-0.01914146915078163	0.062328509986400604	0.015649359673261642	-0.05919373407959938	0.04791037738323212	-0.05166235193610191	-0.01859213598072529	0.05518629029393196	-0.0036730009596794844	-0.0026724745985120535	-0.01210279855877161	0.03684748336672783	-0.055043987929821014	0.011842244304716587	-0.005999516695737839	0.05012127012014389	-0.01573098637163639	0.03487887606024742	0.014187226071953773	-0.055692072957754135	0.028586991131305695	-0.050329841673374176	0.04668893665075302	-0.02117270790040493	0.047463566064834595	-0.054451242089271545	0.05713365972042084	-0.023238014429807663	-0.035047996789216995	-0.052840299904346466	0.0020213399548083544	0.03242282569408417	0.014555367641150951	-0.07751015573740005	-0.02180311642587185	-0.07639525830745697	0.06254374980926514	-0.050600316375494	-0.004291011020541191	-0.017843328416347504	0.09102702885866165	0.06972391158342361	0.07545187324285507	-0.003164540743455291	0.003408286953344941	0.028186392039060593	0.0008073949720710516	0.09516806900501251	0.008931933902204037	-0.041846271604299545	-0.006544276140630245	0.050188321620225906	0.02870779298245907	-0.011979484930634499	0.04293309524655342	-0.11729975789785385	-0.0022266751620918512	-0.005754285026341677	0.05674111470580101	-0.016156157478690147	-0.05224630981683731	0.022677810862660408	0.02207738533616066	-0.030263248831033707	0.029024306684732437	0.04796908050775528	0.001244469196535647	0.013724761083722115	-0.015854740515351295	-0.020519118756055832	0.06044406071305275	-0.019668499007821083	-0.0793456882238388	0.045015789568424225	-0.025852089747786522	-0.025065679103136063	-0.0468563511967659	-0.019599176943302155	0.019536543637514114	-0.063189297914505	0.06936807185411453	0.06698927283287048	-0.04446805641055107	-0.03731578215956688	0.03884243592619896	-0.008454118855297565	-0.045115288347005844	0.049113016575574875	-0.001216585747897625	0.017772242426872253	0.0033531433437019587	-0.033236533403396606	0.008293913677334785	0.0515533909201622	-0.06945106387138367	-0.031789083033800125	0.011233899742364883	-0.035905178636312485	0.03367454186081886	0.025933904573321342	-0.004429724998772144	0.027010830119252205	0.02735786698758602	-0.04513895884156227	-0.05000029876828194	0.025892727077007294	0.08256480097770691	0.03543714061379433	0.027481090277433395	-0.06644432991743088	0.013991490006446838	0.02030370384454727	0.031238919124007225	-0.08130250126123428	0.07871002703905106	-0.01639438606798649	0.037728436291217804	-0.061257485300302505	0.05905831605195999	-0.035687804222106934	-0.0009115208522416651	0.12974175810813904	0.1088353618979454	-0.018000507727265358	0.06816259771585464	0.025596579536795616	0.020066985860466957	-0.052713047713041306	-0.07689329981803894	-0.05111636966466904	0.02082088589668274	-0.03228921443223953	-0.053009334951639175	0.002200182992964983	0.0056749749928712845	-0.05680874362587929	-0.006675553973764181	0.04107174277305603	0.023320484906435013	0.011038253083825111	0.07158190757036209	0.009432895109057426	0.00094458123203367	-0.06704757362604141	0.014256475493311882	-0.003942673094570637	0.06760036200284958	0.02010982111096382	0.06408517062664032	0.010034548118710518	-0.01002116035670042	0.0401981882750988	0.03801343962550163	-0.022350849583745003	-0.036144740879535675	0.019346164539456367	0.01643790863454342	-0.023287048563361168	-0.026058288291096687	-0.03319152072072029	-0.03092288039624691	0.08112900704145432	0.042784687131643295	0.05025695264339447	-0.0019709360785782337	0.05307454243302345	-0.010777950286865234	0.03153235837817192	0.056334834545850754	0.0024964914191514254	0.02146971970796585	0.06684918701648712	-0.0490647554397583	-0.0002785648684948683	0.018263906240463257	-0.014546068385243416	0.030716050416231155	0.019649945199489594	0.10166400671005249	-0.02720591053366661	0.013212733902037144	0.05963314324617386	0.020628925412893295	0.007132465019822121	-0.02875537984073162	-0.028666717931628227	0.029971804469823837	-0.08087484538555145	0.04557625204324722	-0.04048975929617882	-0.029595864936709404	-0.020124612376093864	0.02406671829521656	0.015554521232843399	0.07738448679447174	0.07993024587631226	0.02910221740603447	-0.01651514321565628	-0.0014936502557247877	-0.015919165685772896	0.04247630760073662	-0.03812086954712868	0.07021521776914597	0.01088682096451521	0.01740400306880474	0.05323047190904617	-0.03160589933395386	-0.0337054580450058	0.03700217232108116	-0.0292916689068079	-0.02656783163547516	-0.047555193305015564	-0.014000424183905125	0.05207884684205055	-0.010360443033277988	-0.020558834075927734	0.052542224526405334	-0.1166534572839737	0.03720621392130852	-0.0024675822351127863	-0.08877807855606079	-0.03451799228787422	0.13994595408439636	0.02292093075811863	0.03169657662510872	0.020999612286686897	0.0916220024228096	-0.08600109815597534	0.012320099398493767	0.0779372900724411	-0.025002917274832726	0.028224794194102287	-0.05706442892551422	-0.04746463894844055	-0.005363848526030779	0.011946565471589565	0.03435945138335228	-0.013088532723486423	-0.03913761302828789	0.05717591568827629	-0.04693294316530228	-0.0025740431156009436	0.013869943097233772	0.027356276288628578	0.03387337177991867	0.03171289339661598	0.07583507150411606	0.05093126371502876	0.029693566262722015	-0.018455861136317253	-0.05471650883555412	0.010079938918352127	-0.02435190975666046	0.01783309504389763	0.059976641088724136	0.06584978103637695	-0.004077404271811247	-0.004131626803427935	-0.052438367158174515	0.017498021945357323	-0.043102700263261795	-0.0667048916220665	0.03489934653043747	-0.059961993247270584	-0.02170286513864994	0.02732531912624836	0.009258345700800419	-0.003189576556906104	-0.015125102363526821	-0.0053142583929002285	0.034980542957782745	-0.05325770378112793	0.048392292112112045	-0.02271762676537037	0.050910066813230515	0.05298147723078728	0.08197271078824997	-0.049073949456214905	-0.05047808587551117	0.008725596591830254	-0.07293813675642014	-0.005289082881063223	0.045684169977903366	-0.051296308636665344	-0.05018988624215126	-0.043151214718818665	0.02048807218670845	0.003909362945705652	-0.03855780512094498	0.021770482882857323	0.0235774926841259	-0.05007530003786087	0.00605423841625452	0.023402176797389984	0.04024925455451012	0.028299245983362198	0.01672190986573696	-0.04338938370347023	0.0011435217456892133	-0.04911229386925697	-0.014181106351315975	0.03245069086551666	0.016094902530312538	0.010742456652224064	0.01518000103533268	0.10984301567077637	-0.02961774542927742	0.008814525790512562	-0.03918445110321045	0.05410153418779373	0.011448793113231659	-0.009169540368020535	-0.03537609428167343	-0.0627325028181076	-0.013843449763953686	0.04205022379755974	0.014369248412549496	0.01143915206193924	-0.06640282273292542	-0.05219591036438942	-0.07344112545251846	0.00716256070882082	0.042235784232616425	-0.05622458830475807	-0.04538519307971001	0.016937628388404846	-0.016485048457980156	0.008889352902770042	0.0395202599465847	-0.05857264623045921	0.04039110615849495	-0.05799116939306259	0.026053866371512413	-0.01618495024740696	-0.020231908187270164	-6.805479642935097e-05	-0.039790078997612	-0.029706384986639023	0.03606114163994789	-0.0393785759806633	0.01671827770769596	0.051449477672576904	0.007328188046813011	-0.04236815124750137	-0.044752102345228195	-0.08013930171728134	-0.039240315556526184	0.020801523700356483	0.02218347042798996	-0.05947612226009369	0.06123153120279312	0.07318313419818878	-0.02716655656695366	0.004163874313235283	0.008181012235581875	0.0838899239897728	-0.04642338305711746	0.026671845465898514	-0.016458790749311447	-0.040468499064445496	-0.07154565304517746	0.04011473432183266	0.0050250026397407055	-0.07338050752878189	0.014268448576331139	0.00896900612860918	-0.06922515481710434	-0.005099497269839048	0.008613686077296734	0.054874319583177567	0.0036501307040452957	0.07987737655639648	-0.06488905102014542	-0.010294647887349129	0.011539088562130928	0.07579268515110016	-0.00711761275306344	-0.0070537603460252285	-0.012740006670355797	0.028426865115761757	-0.015961604192852974	0.01180984452366829	0.015805786475539207	-0.002662037964910269	-0.023459332063794136	0.038796037435531616	-0.01276426948606968	-0.02441917546093464	-0.05652158334851265	0.05520916357636452	-0.02732151374220848	-0.026436705142259598	-0.007749051321297884	0.024135492742061615	0.052631910890340805	0.010683760978281498	0.027678893879055977	0.005311957560479641	-0.036639221012592316	-0.051573496311903	-0.06887929886579514	-0.04448596388101578	-0.010491743683815002	-0.05989157408475876	0.008065900765359402	0.03423464670777321	0.009720085188746452	0.03965099900960922	-0.009249666705727577	0.08007476478815079	-0.015123721212148666	0.055773939937353134	0.025590138509869576	0.04959213361144066	-0.025844858959317207	-0.024543464183807373	-0.003441885346546769	-0.06017448008060455	-0.013287915848195553	0.004243791569024324	-0.01743876002728939	0.02017471194267273	0.0020794696174561977	0.05735213682055473	-0.011144542135298252	0.018033336848020554	-0.03559582680463791	0.03712373599410057	0.028141111135482788	0.00040182293741963804	0.05034010112285614	0.010041368193924427	0.009756394661962986	-0.024424506351351738	0.061183713376522064	-0.010582301765680313	0.004617336206138134	0.02686631865799427	0.06440180540084839	0.0059317369014024734	0.051770176738500595	-0.08769755810499191	-0.026657335460186005	-0.02152526006102562	0.05374357849359512	0.035998325794935226	0.0032342199701815844	-0.10565678775310516	0.023795215412974358	0.04075184464454651	-0.011478268541395664	0.010213600471615791	0.06745162606239319	0.03477901965379715	-0.061914313584566116	-0.020487144589424133	-0.06226265802979469	0.04135376587510109	0.02622639574110508	-0.036080121994018555	-0.00813392922282219	-0.07188557088375092	-0.01098411064594984	0.04378845542669296	-0.0408608578145504	0.006728215143084526	0.07434375584125519	0.0765049010515213	0.08043954521417618	0.06490567326545715	-0.10109324008226395	-0.03332515433430672	0.021215947344899178	0.006832294166088104	0.07179518789052963	-0.09737160056829453	0.058051321655511856	0.02252790704369545	0.01757221855223179	-0.004808332771062851	-0.049791622906923294	0.010252959094941616	-0.05733887106180191	-0.052719272673130035	-0.007785541471093893	0.022991947829723358	-0.06861458718776703	-0.07470645010471344	0.03981747478246689	-0.0805693045258522	-0.022832898423075676	0.00887209177017212	-0.13892365992069244	0.0858282744884491	0.01774245873093605	0.06215071305632591	-0.0030104632023721933	0.026405250653624535	-0.0712597668170929	0.023710384964942932	0.03541262820363045
0.06163366511464119	-0.029431914910674095	0.06437041610479355	0.024184226989746094	-0.013690253719687462	0.0040090857073664665	-0.04245750606060028	0.00556343887001276	0.013425800018012524	0.09121053665876389	-0.02319803088903427	-0.013038196600973606	-0.01564461924135685	-0.005311238579452038	-0.04896199703216553	0.030221765860915184	-0.019777100533246994	-0.07552175968885422	0.03941342234611511	-0.09106715768575668	0.038010746240615845	0.08251655101776123	-0.027883581817150116	-0.01164772268384695	-0.019569652155041695	-0.017532533034682274	-0.05963584780693054	-0.02188239060342312	0.027052270248532295	-0.008639506995677948	0.01917567290365696	0.004383725579828024	0.014450649730861187	0.003156143007799983	0.032743584364652634	0.027736898511648178	-0.008388502523303032	0.08725878596305847	-0.09772646427154541	-0.02734205685555935	-0.06327394396066666	-0.05895756557583809	-0.0009764961432665586	-0.0014791045105084777	-0.013924459926784039	0.011991238221526146	-0.06370996683835983	-0.02173619344830513	0.00965168233960867	0.0408695712685585	-0.0523836612701416	0.06084673851728439	-0.039038870483636856	-0.06492919474840164	-0.03779704496264458	-0.05556008219718933	0.09089237451553345	-0.025179147720336914	0.007271833252161741	0.07052724808454514	-0.06337599456310272	-0.004450002685189247	0.012594803236424923	-0.0319700725376606	0.050894688814878464	0.04126853123307228	-0.07515528798103333	0.0320136621594429	0.0005828955327160656	0.009257873520255089	0.050846122205257416	0.040052708238363266	0.028899921104311943	0.060644395649433136	-0.03434639051556587	0.04681093245744705	0.00482048699632287	-0.04892384633421898	-0.010272245854139328	0.023133546113967896	-0.005290084518492222	-0.026445455849170685	0.03225017711520195	0.033918436616659164	0.01099312398582697	0.00925831776112318	0.014398990198969841	0.04801495373249054	-0.08022952824831009	-0.018584394827485085	-0.010670102201402187	0.00632398622110486	0.06543245911598206	0.045920345932245255	-0.04123365879058838	-0.03148673102259636	-0.055925242602825165	-0.01595121994614601	0.03101346455514431	0.013128596358001232	-0.03360510244965553	-0.016628898680210114	-0.02901286818087101	-0.022707104682922363	0.0686478540301323	-0.061091918498277664	-0.01999230869114399	-0.0387735553085804	0.02286275289952755	-0.008835101500153542	0.019597256556153297	-0.06163768097758293	-0.03233934938907623	0.006952180527150631	-0.03869204223155975	0.02665075473487377	0.023467661812901497	0.0020254459232091904	0.04603121057152748	0.01732596382498741	-0.042182207107543945	0.033090077340602875	-0.016303041949868202	0.025897152721881866	0.067591592669487	-0.041097741574048996	0.0633515939116478	0.03370555490255356	-0.053919099271297455	0.02266349084675312	0.04172636196017265	-0.04253792762756348	0.13526196777820587	0.042450159788131714	-0.012172099202871323	0.01589689776301384	-0.013304341584444046	-0.017335526645183563	0.026204919442534447	-0.045673854649066925	-0.04280679672956467	-0.06298736482858658	0.04730825498700142	-0.013318908400833607	-0.005948453210294247	-0.00832549948245287	0.005803610198199749	-0.029293900355696678	-0.008849098347127438	0.009530051611363888	0.04877261817455292	0.005465394351631403	0.0015187259996309876	-0.025053758174180984	-0.031369686126708984	-0.02643360011279583	0.03997677192091942	0.026834163814783096	0.03871848061680794	0.006261648144572973	-0.051261529326438904	-0.05947436764836311	0.06799188256263733	0.08093385398387909	-0.052045486867427826	-0.01243309210985899	0.029475677758455276	-0.023801511153578758	-0.0881858542561531	-0.019849194213747978	-0.023953234776854515	-0.0020385219249874353	0.041545238345861435	0.08883417397737503	-0.010661356151103973	-0.059689633548259735	0.03886003419756889	-0.04390326142311096	0.005161345936357975	-0.0655440017580986	0.05163678526878357	0.023549752309918404	0.053765274584293365	-0.06450260430574417	0.05315227806568146	0.037161342799663544	-0.0710110068321228	0.0416184663772583	-0.006978480610996485	0.11054161190986633	-0.03551634028553963	0.008241440169513226	0.023801185190677643	-0.030374344438314438	0.042262014001607895	-0.04102853313088417	-0.003519454039633274	-0.049276355654001236	-0.06464206427335739	0.01863858848810196	-0.10204017907381058	-0.03505180403590202	0.007924939505755901	-0.06454404443502426	0.03914685174822807	0.016467519104480743	0.06466730684041977	0.06438104808330536	0.09768106043338776	0.05200491473078728	-0.07537729293107986	0.028697820380330086	-0.005684914533048868	0.08775480091571808	0.018023144453763962	-0.017595641314983368	0.0064562964253127575	-0.015189421363174915	-0.003227566136047244	0.06563844531774521	0.0034713868517428637	0.05486954376101494	0.036393605172634125	-0.0005031523178331554	0.011741042137145996	-0.0829937607049942	0.04650484398007393	0.09668575972318649	-0.034871622920036316	0.029509173706173897	-0.00891013815999031	-0.04617149010300636	-4.416453975863988e-06	0.13916152715682983	-0.009507212787866592	-0.0034516239538788795	-0.016033470630645752	0.03421790525317192	-0.0652482658624649	0.0381176620721817	0.053742170333862305	-0.031209995970129967	0.011243807151913643	-0.08885323256254196	0.0017744495999068022	-0.028287969529628754	0.006345788016915321	0.04637029394507408	0.0786166787147522	0.04059647023677826	0.022089742124080658	0.03709251433610916	0.032147109508514404	-0.018033139407634735	-0.030438804998993874	-0.012985612265765667	0.033861275762319565	-0.001306014135479927	0.04388638213276863	0.010080944746732712	0.026133736595511436	0.04616830125451088	0.014918161556124687	0.061455294489860535	0.04292083531618118	-0.03873981535434723	-0.03677922859787941	0.06658124923706055	0.008433808572590351	-0.04836671054363251	-0.044962186366319656	-0.08560066670179367	-0.03709762915968895	-0.03102998249232769	-0.03478064388036728	0.019900090992450714	0.008638806641101837	-0.016664069145917892	-0.07903319597244263	-0.0018320897361263633	-0.018216732889413834	0.05921721085906029	-0.0005539210396818817	0.07442687451839447	-0.06878554821014404	0.018748102709650993	0.01760702393949032	0.04553479328751564	-0.053811363875865936	0.029398666694760323	-0.041379913687705994	-0.01585349813103676	0.009843244217336178	0.011629417538642883	0.06731893867254257	-0.0274310614913702	0.05226436257362366	-0.01597941853106022	-0.029612693935632706	0.0013663223944604397	-0.074483223259449	0.037798188626766205	-0.0011158017441630363	0.04120244085788727	-0.05220487713813782	0.0010238480754196644	0.00031514069996774197	-0.017348114401102066	0.01549056451767683	0.023531032726168633	0.04234965145587921	-0.038473423570394516	-0.03206729516386986	-0.03556884825229645	-0.05773806571960449	-0.04552152007818222	0.009479724802076817	0.018606392666697502	0.027008596807718277	-0.0689765065908432	-0.001102121314033866	0.00020982000569347292	0.0035831001587212086	0.011425635777413845	0.028579702600836754	-0.04857085272669792	-0.030272237956523895	0.00858039129525423	0.018924541771411896	0.006161075085401535	0.036846645176410675	-0.042144495993852615	0.016070518642663956	0.05729610100388527	-0.0293243620544672	0.004879779182374477	0.004476661793887615	-0.06336194276809692	-0.057039353996515274	-0.015892447903752327	-0.024322420358657837	0.05357895419001579	-0.05515953153371811	-0.03876953944563866	0.01718454249203205	-0.02387341856956482	-0.0032393992878496647	0.03856377676129341	-0.07148780673742294	-0.01495411992073059	-0.03982194513082504	-0.04593725875020027	0.01687331311404705	0.057486020028591156	-0.06608033925294876	-0.009128822013735771	-0.09809964150190353	0.026998892426490784	-0.11160752177238464	-0.04019114375114441	-0.06564035266637802	-0.0030939222779124975	-0.00508843781426549	-0.04859423264861107	0.025987548753619194	0.047555968165397644	0.10217747092247009	0.017244011163711548	0.00011336745228618383	0.012278702110052109	-0.035661108791828156	0.0715368241071701	0.042123403400182724	0.04404262453317642	-0.004973633214831352	0.04886148124933243	0.013704812154173851	0.014646599069237709	0.008192799985408783	0.023325227200984955	0.04998229816555977	-0.02217997796833515	-0.06257164478302002	0.0669948160648346	0.07553208619356155	-0.05789664015173912	0.04520364850759506	0.049189019948244095	-0.028216470032930374	-0.022249246016144753	0.02092883549630642	-0.029082341119647026	0.008895722217857838	-0.029223114252090454	-0.052281998097896576	0.01519626472145319	-0.06491179019212723	-0.037741225212812424	-0.03607291728258133	0.04224041476845741	0.0008590114885009825	0.0330049991607666	0.047985345125198364	0.07697410136461258	0.019333399832248688	-0.002553622703999281	-0.03669055551290512	-0.034202735871076584	-0.04066698998212814	-0.06111784651875496	0.031334683299064636	0.021668272092938423	0.031372345983982086	-0.0026793265715241432	-0.05269993096590042	-0.027054140344262123	0.03259379416704178	-0.03982815146446228	0.031104087829589844	-0.017473548650741577	0.05189380422234535	0.07631409168243408	-0.05590980127453804	0.05301177501678467	0.0675276517868042	0.032973989844322205	0.04944336414337158	-0.0681728646159172	-0.02430845983326435	0.003519898047670722	0.036509059369564056	-0.008271363563835621	-0.003762054955586791	-0.055193036794662476	-0.08183471858501434	0.034902557730674744	-0.025686338543891907	-0.054783642292022705	-0.055303581058979034	0.0408250093460083	0.017543094232678413	0.001977044390514493	0.029701948165893555	0.09127336740493774	-0.04639000818133354	-0.04316658526659012	0.035136595368385315	0.02833477407693863	0.05977923050522804	0.07316561043262482	0.058685943484306335	-0.01603451743721962	-0.08307833224534988	-0.032836999744176865	0.0633467510342598	-0.057235680520534515	0.02997000329196453	-0.018447725102305412	-0.031045066192746162	-0.00011948413884965703	0.004803224466741085	0.02014179341495037	0.007466776762157679	-0.020186908543109894	-0.013867778703570366	-0.08953412622213364	0.06356979161500931	-0.05373860523104668	0.02989308536052704	0.0078146792948246	-0.06542283296585083	0.01447898056358099	-0.021600382402539253	0.04504173994064331	-0.06317850947380066	-0.023466600105166435	-0.026773005723953247	0.04210597649216652	-0.0390596017241478	-0.005958819296211004	0.0007108448189683259	-0.04045099392533302	0.025363842025399208	0.10156356543302536	-0.07641083747148514	-0.04658035933971405	-0.0899481475353241	0.02155742235481739	-0.03848651796579361	0.046349190175533295	-0.024360505864024162	-0.03553549945354462	-0.028242820873856544	-0.01870364136993885	-0.06322097033262253	0.02093534730374813	-0.0034007495269179344	-0.06758654117584229	-0.0560876838862896	0.020557651296257973	-0.029564641416072845	0.02314986102283001	0.037416841834783554	-0.13746590912342072	0.054338373243808746	0.022408919408917427	-0.051891081035137177	-0.06833749264478683	0.04521844536066055	0.056386616080999374	-0.040438249707221985	-0.08336541056632996
